tree
version=v4
num_class=1
num_tree_per_iteration=1
label_index=0
max_feature_idx=17
objective=regression
feature_names=symbol_enc rv_d rv_w rv_m parkinson_vol gk_vol amihud rsi_14 macd macd_signal macd_hist bb_bw atr_14 close_lag1 volume_lag1 volume_ma5 day_of_week month
feature_infos=[0:49] [0:1.6497299341867437] [0:1.1415971425112823] [0.0093507947480117575:1.1102667518842466] [0:1.8536827631366388] [0:1.719849510071209] [0:84323.154860411378] [1.7728705488224819:96.127195741709755] [-13.142710994699463:11.493544084988031] [-12.135741078060608:10.343500085398967] [-3.4268935660502788:3.1153289282398342] [0.0071001962091027737:1.6241485490285965] [0.014617848391105935:7.902508354322161] [0.81999999999999995:184.84] [0:128536256] [30:58651610.799999997] [0:4] [1:12]
tree_sizes=5484 5626 5758 5661 5847 5566 5888 5887 5577 5878 5685 5893 5865 5894 5941 5666 5896 5721 5822 5897 5789 5729 5740 5891 5766 5786 5926 5725 5890 5844 5894 5995 5730 5833 5641 5459 5824 5501 5486 5779 5855 5396 5898 5868 5728 5355 5439 5609 5885 5800 5768 5539 5581 5916 5377 5265 5566 5824 5511 5646 5679 5746 4703 5921 5442 5018 5726 5813 5770 5549 5889 5375 5871 5840 5775 5536 5030 4629 5276 4927 5837 5977 5877 4878 4476 4769 5716 5866 5991 5918 5143 5980 4774 4676 5421 5576 5754 5303 4773 4488 5350 5774 5396 4885 5417 5142 4700 3809 5593 5246 3620 4763 4713 4911 4739 4815 5696 5382 4571 5559 4504 3810 5025 3149 5932 3921 4838 3883 5052 5553 5652 3679 3978 4436 5354 4102 2625 3733 3831 3472 4941 3648 5506 5297 2971 4664 4271 5724 3601 3660 4925 5366 4379 4798 5338 4675 5059 5113 4722 4646 4374 4778 5605 4797 3578 3870 5855 5319 3719 5269 4264 4075 3133 4580 4241 3902 5201 3515 5761 4650 3171 4419 3453 4867 4758 4391 4773 4943 4256 4094 4000 3618 5096 2716 3879 4921 5454 4706 2907 4789 4169 3080 4993 4863 4078 2996 5927 5179 4980 3620 4936 4377 3826 4660 4028 4969 4859 5172 3565 3947 3408 5451 4123 3618 5359 5509 5267 4588 4814 3327 3489 4643 3718 5011 3692 3233 4466 2253 4300 4985 4477 4679 3703 5647 4020

Tree=0
num_leaves=62
num_cat=0
split_feature=2 2 2 1 2 1 2 2 2 1 2 1 3 1 7 10 10 2 1 3 1 17 1 3 2 1 1 2 2 7 7 2 3 1 7 7 3 1 7 1 2 3 7 3 14 2 7 7 7 3 1 14 1 2 2 9 3 10 10 15 2
split_gain=962.48 164.33 155.879 34.0284 25.4582 23.1745 21.8751 20.0513 15.7247 7.36638 4.63683 4.52961 4.39047 4.32631 4.20672 5.34909 4.43799 4.1594 3.2526 2.84569 2.65874 2.60961 2.22409 1.99783 1.79301 1.5744 1.54605 1.43322 1.41831 1.40967 1.24495 1.16711 1.08812 1.08405 1.04118 0.990092 0.984433 0.958448 0.956553 0.955033 0.931525 0.904488 0.865898 0.839279 0.83798 0.774498 0.732812 0.621217 0.619774 0.528259 0.47252 0.44267 0.431315 0.404539 0.320922 0.221889 0.210721 0.210078 0.195726 0.124283 0.0140091
threshold=0.28581714951810178 0.48898263335616227 0.16407821809790604 0.71876978951829762 0.10299709193063709 0.4841418350467957 0.38684772133983031 0.62909256029418825 0.21825031248994986 0.60042114584648143 0.061615320480193338 0.68681768393311715 0.20229772606239471 0.94838191236966496 17.397630764438805 -0.70303225208089393 -0.033003323669842974 0.34221474807594426 0.30157146708975141 0.22097010387958774 0.83300131880406669 10.500000000000002 0.40855767907193924 0.15733694733721415 0.2458083055441245 1.0870943481226509 0.86447933335174298 0.13964398128079733 0.42074892654593571 66.866732622261196 34.204654197214722 0.19097205563024119 0.31583551321613229 0.94838191236966496 63.864024349343964 69.193822648019264 0.087445246163494819 0.29513582664064847 60.476710616823183 0.38814911363747345 0.57541005434670367 0.25063866249701822 36.998917480336495 0.32821894021345599 5302655.0000000009 0.36282636975362087 65.426737144133952 56.453298812864311 64.289582639785252 0.27948448442444179 0.30441630436024697 905165.00000000012 0.44303827650587635 0.41064005790083918 0.21023303116424097 0.033072363699116973 0.42273987310960931 -0.0055349020680875707 -0.072824525449185495 993820.00000000012 0.41566598522174375
decision_type=2 2 2 2 2 2 2 2 2 2 2 2 2 2 2 2 2 2 2 2 2 2 2 2 2 2 2 2 2 2 2 2 2 2 2 2 2 2 2 2 2 2 2 2 2 2 2 2 2 2 2 2 2 2 2 2 2 2 2 2 2
left_child=2 3 4 6 10 8 17 9 19 30 29 49 18 35 15 21 20 22 27 31 -16 -9 -2 38 41 -18 47 -6 50 36 51 -4 37 57 53 45 -1 -14 -12 -19 -32 -10 -21 -26 -30 -5 -28 -11 -25 54 -8 -3 -20 -15 -7 -31 -34 -13 -51 -37 -36
right_child=1 7 5 13 12 11 28 14 24 26 23 33 32 34 16 -17 25 39 52 42 -22 -23 -24 48 43 -27 46 -29 44 55 40 -33 56 -35 60 59 -38 -39 -40 -41 -42 -43 -44 -45 -46 -47 -48 -49 -50 58 -52 -53 -54 -55 -56 -57 -58 -59 -60 -61 -62
leaf_value=0.26918438308808823 0.28208878571329199 0.29159715260457186 0.27596645548978371 0.28868833657109177 0.27353792266244698 0.28042588994114587 0.28587538784578592 0.29153516317241335 0.27843245934091154 0.29588924954202128 0.27165020462450457 0.28752440543405183 0.27535246030663907 0.29429828901685184 0.30026991294492078 0.30602480115931185 0.29699682495674151 0.28429000109702479 0.27638652312015249 0.28027783599279027 0.30567141107956858 0.27079883955176509 0.28434772016776949 0.27323328448319484 0.27997337225223384 0.30785232996144907 0.2990882333356934 0.27468573018523623 0.28802983440195479 0.27904862117615792 0.29044366098949137 0.27717157339126797 0.27727957421025912 0.29219960076894336 0.29041794969427148 0.28478328618087789 0.2708500887820402 0.2778434149885175 0.27341562469173131 0.28619269715165341 0.29328203434291522 0.27982538470803781 0.2777977929518099 0.28165629324493213 0.29036471013726523 0.2916985175780174 0.29396668682837568 0.29236615975824715 0.27552028817287222 0.28581722432904444 0.28756934324659994 0.29621081904887986 0.27905541992318789 0.29741798291710592 0.28213902027772042 0.27368392922391577 0.27955856899567011 0.28527566037187618 0.28301267625582999 0.28768272735436773 0.29284624553130401
leaf_weight=1431 4541 106 4798 411 7734 419 989 27 3197 464 5102 208 4060 354 548 30 714 2299 866 378 476 32 1449 2954 4670 39 558 4335 1925 23 1320 3522 676 91 143 87 2791 435 957 974 425 1831 4639 886 533 577 108 237 349 95 852 208 188 256 877 240 115 328 271 129 81
leaf_count=1431 4541 106 4798 411 7734 419 989 27 3197 464 5102 208 4060 354 548 30 714 2299 866 378 476 32 1449 2954 4670 39 558 4335 1925 23 1320 3522 676 91 143 87 2791 435 957 974 425 1831 4639 886 533 577 108 237 349 95 852 208 188 256 877 240 115 328 271 129 81
internal_value=0.279073 0.288284 0.275781 0.2857 0.273454 0.278645 0.284793 0.295898 0.278185 0.293612 0.271834 0.28345 0.274673 0.291726 0.300081 0.2892 0.300618 0.283423 0.274182 0.277043 0.302809 0.280255 0.282637 0.272471 0.279624 0.297603 0.296478 0.273949 0.287742 0.270506 0.291699 0.276476 0.275894 0.287074 0.294519 0.289775 0.270282 0.275592 0.271927 0.28486 0.291146 0.278941 0.277986 0.280243 0.288543 0.290462 0.298289 0.294726 0.273472 0.282076 0.286666 0.294714 0.276857 0.295644 0.28159 0.274132 0.277617 0.286172 0.283771 0.28657 0.291376
internal_weight=79358 20892 58466 15600 32256 26210 13562 5292 23921 3426 13847 2289 18409 2038 1866 89 1777 9263 13123 13337 1024 59 5990 9362 10584 753 1367 12069 4299 4485 2059 8320 5286 627 834 1204 4222 4495 6059 3273 1745 5028 5017 5556 2458 988 666 701 3303 1662 1841 314 1054 610 1296 263 791 536 366 216 224
internal_count=79358 20892 58466 15600 32256 26210 13562 5292 23921 3426 13847 2289 18409 2038 1866 89 1777 9263 13123 13337 1024 59 5990 9362 10584 753 1367 12069 4299 4485 2059 8320 5286 627 834 1204 4222 4495 6059 3273 1745 5028 5017 5556 2458 988 666 701 3303 1662 1841 314 1054 610 1296 263 791 536 366 216 224
is_linear=0
shrinkage=1


Tree=1
num_leaves=61
num_cat=0
split_feature=2 2 2 4 4 4 2 1 2 1 4 2 4 2 4 1 4 1 4 4 4 2 5 10 1 2 1 4 4 5 4 5 5 1 4 1 4 4 6 4 2 2 1 1 4 7 7 4 4 4 4 1 2 4 4 2 6 2 2 5
split_gain=868.99 147.144 142.516 55.1235 44.87 38.6337 21.4108 16.4166 16.3183 14.2115 10.618 10.5717 10.0451 9.69781 7.61416 6.81786 5.15808 5.10397 4.77292 4.71744 4.50986 4.38261 3.44396 2.75171 2.47842 2.45351 2.26523 2.25606 2.23432 2.07654 1.9994 1.87453 1.86167 1.85412 1.7563 1.6502 1.57989 1.5563 1.52161 1.35038 1.21534 1.1743 1.17106 1.1127 0.998825 0.893741 0.885977 0.795175 0.760186 0.677571 0.604374 0.461069 0.429946 0.357497 0.283364 0.23388 0.207958 0.198705 0.125318 0.0410487
threshold=0.29026664826014731 0.17170577057218606 0.49742305689249261 0.29666341344513963 0.38395579107196204 0.39290485672938197 0.10632892738663237 0.61297541628839125 0.679930874475423 0.50877188447157984 0.48901044708397651 0.38684772133983031 0.048271564208460141 0.23466486422942789 0.52191280498963277 0.9050769626209425 0.22603654851673313 0.60042114584648143 0.55249922262789553 0.15123804201960897 0.17353647109415968 0.39614638223783577 0.54797045411980949 -0.034254177909298335 0.99196696577372057 0.0573257747459524 0.67117458195667246 0.19286752842764407 0.5312259506654865 0.56027151920995111 0.24915680666809212 0.3211277209901266 0.35216307780141404 0.22712504394110677 0.6447889947936255 0.62533499083178301 0.56394445566515328 0.40130558029684854 0.010602914444757189 0.35945816223953325 0.84042151804965515 0.42074892654593571 0.30157146708975141 0.86447933335174298 0.33414709668118819 77.094731391950134 65.895479904858561 0.31263276818602975 0.66342203965277025 0.63089846198155852 0.61473461595243994 0.7676844408548934 0.59144449456014503 0.44261374844692153 0.6447889947936255 0.41064005790083918 0.0071878160116420108 0.25418513943609639 0.57541005434670367 0.42583865373364443
decision_type=2 2 2 2 2 2 2 2 2 2 2 2 2 2 2 2 2 2 2 2 2 2 2 2 2 2 2 2 2 2 2 2 2 2 2 2 2 2 2 2 2 2 2 2 2 2 2 2 2 2 2 2 2 2 2 2 2 2 2 2
left_child=1 3 5 6 9 7 19 11 14 13 31 27 -10 16 17 21 -3 44 32 25 33 28 36 40 41 -1 57 -2 -7 54 -15 39 53 -8 -23 -34 -12 -33 -21 -5 -14 -9 -22 -19 -4 52 56 -13 -31 -25 -24 -28 -16 -6 -20 -26 -17 -11 -47 -48
right_child=2 4 8 10 18 15 20 24 12 26 22 47 23 30 45 46 -18 43 29 38 42 34 50 49 55 -27 51 -29 -30 48 -32 37 35 -35 -36 -37 -38 -39 -40 -41 -42 -43 -44 -45 -46 58 59 -49 -50 -51 -52 -53 -54 -55 -56 -57 -58 -59 -60 -61
leaf_value=-0.0095012459856160456 0.0016715107490239544 -0.0028193778718458265 0.010299597424179401 -0.00089523668336662652 0.0054402014873977458 0.0070880853664630691 -0.0056993315410451472 0.0076490644292065632 -0.0038475132638063191 0.0017901186931497605 0.004717426568290755 0.0061523265434091246 0.02264105500388397 -0.00039421901767707564 0.017604252769997403 0.012958154765478637 -0.00068621686636078023 0.014411089232802481 0.0096735637340984795 -0.0076481008664257824 -0.003953381154595678 0.011004633898525781 -0.0008787607856152737 0.017552707683316422 0.012157472862588788 -0.0075982527329034495 0.0049430860953309161 0.0036714401254825586 0.010332931128366387 0.003970366976217287 0.0014159688143709659 -0.0030984128599241194 0.002744148297665297 -0.0038702631982688498 0.015418633868998272 0.007985671382380783 0.010124825935478955 -0.00016152208928353962 -0.0056805454596408657 0.0024852818771028528 0.027844841205394336 0.010938385605136635 -0.0018548218290448037 0.017913379322357655 0.012884769099061938 0.0080290856283029618 0.014230887136289054 0.0080935408956187577 0.0079052519264881053 0.022472944477654341 0.0029922817694023256 0.0080651330885252569 0.020231991432493136 0.0081240155273467358 0.01266678928833785 0.01570970283542562 0.017307000200983705 0.0033171042690731387 0.014422313439846041 0.010512113204384421
leaf_weight=2468 2113 8675 922 876 338 1370 8523 980 38 698 298 2123 542 4661 575 58 4220 598 302 1387 5719 1154 188 347 166 5832 289 4324 904 246 2265 1422 1566 1689 300 167 260 666 3690 444 192 403 766 460 738 28 34 754 269 125 212 231 391 235 157 126 386 331 24 93
leaf_count=2468 2113 8675 922 876 338 1370 8523 980 38 698 298 2123 542 4661 575 58 4220 598 302 1387 5719 1154 188 347 166 5832 289 4324 904 246 2265 1422 1566 1689 300 167 260 666 3690 444 192 403 766 460 738 28 34 754 269 125 212 231 391 235 157 126 386 331 24 93
internal_value=2.41845e-07 -0.003064 0.00893379 -0.00517482 -0.000114552 0.00653954 -0.00593697 0.00496579 0.0162801 -0.000950565 7.4058e-05 0.00414447 0.0212595 -0.00131126 0.0146155 0.0105591 -0.00212178 0.0132158 0.00532938 -0.00742836 -0.00474146 0.00977083 0.004723 0.0220572 0.00952462 -0.00816579 0.00365947 0.00301608 0.00838421 0.00826927 0.000197161 -0.00123231 0.00408243 -0.00539771 0.0119288 0.00325644 0.00725955 -0.00216457 -0.00622045 0.000239082 0.0240451 0.00861838 -0.0037066 0.015954 0.011459 0.0183311 0.0156706 0.00666545 0.0060467 0.0189111 0.00116277 0.00635241 0.0186929 0.00656184 0.0107336 0.0137557 0.0167805 0.0022889 0.0112906 0.0116502
internal_weight=79358 59090 20268 34440 24650 15288 30074 10989 4980 21370 4366 9314 1244 19821 3736 4299 12895 2718 3280 13377 16697 3728 958 1206 1675 8300 1549 6437 2274 974 6926 3408 2306 10212 1454 1733 558 2088 5077 1320 734 1383 6485 1058 1660 1018 571 2877 515 472 400 520 966 573 459 292 444 1029 52 127
internal_count=79358 59090 20268 34440 24650 15288 30074 10989 4980 21370 4366 9314 1244 19821 3736 4299 12895 2718 3280 13377 16697 3728 958 1206 1675 8300 1549 6437 2274 974 6926 3408 2306 10212 1454 1733 558 2088 5077 1320 734 1383 6485 1058 1660 1018 571 2877 515 472 400 520 966 573 459 292 444 1029 52 127
is_linear=0
shrinkage=0.05


Tree=2
num_leaves=62
num_cat=0
split_feature=2 2 2 4 4 4 2 2 1 2 2 4 4 4 5 1 1 4 1 2 4 1 4 5 1 1 10 4 5 4 4 2 4 5 5 1 2 4 10 5 2 2 4 6 4 4 1 4 1 2 1 1 10 11 1 10 2 10 4 1 6
split_gain=784.569 137.15 124.664 44.7168 43.9215 33.5912 19.9605 15.1381 13.6412 13.3938 8.93461 8.85969 8.36595 8.21339 7.39074 6.39123 5.92779 4.43561 4.10173 4.00472 3.89366 3.37148 3.22288 3.10888 2.47962 2.26869 2.25596 2.22965 2.20632 2.36569 2.16219 1.9579 1.86757 1.85587 1.77064 1.6788 1.60532 1.58661 1.54111 1.47698 1.39308 1.31613 1.30743 1.21492 1.18425 1.08769 0.997445 0.934379 0.911473 0.838285 0.829318 0.807427 0.69655 0.62072 0.540004 0.53146 0.335687 0.295764 0.259707 0.141493 0.0338409
threshold=0.28360542551807427 0.47295005485574976 0.15873493105842232 0.3258874007301506 0.30352400938578056 0.39290485672938197 0.62909256029418825 0.091244022721576806 0.59034649425218932 0.20630973951178241 0.36282636975362087 0.44261374844692153 0.49683204347046517 0.39290485672938197 0.037254103624481637 0.54832610868905107 0.86447933335174298 0.17353647109415968 0.56857250373846469 0.84042151804965515 0.58895232525888486 0.33181107451623665 0.16372261095793508 0.56027151920995111 0.86447933335174298 0.68681768393311715 -0.03658213792426724 0.19514242428564768 0.47462148419913847 0.6447889947936255 0.17795243392817936 0.36282636975362087 0.19735724923849815 0.63137845048574326 0.33618261332586957 0.83300131880406669 0.12960581462668394 0.55249922262789553 -1.2028601896905249 0.34894233557120624 0.0573257747459524 0.42074892654593571 0.52191280498963277 0.010602914444757189 0.35945816223953325 0.40130558029684854 0.30441630436024697 0.63089846198155852 0.52746038841384268 0.54990496953045287 0.94838191236966496 0.71876978951829762 0.0047773629308174798 0.065117065228861473 1.0870943481226509 0.0092534540251511897 0.41064005790083918 0.048920909712603884 0.52191280498963277 0.9050769626209425 0.013882652044084705
decision_type=2 2 2 2 2 2 2 2 2 2 2 2 2 2 2 2 2 2 2 2 2 2 2 2 2 2 2 2 2 2 2 2 2 2 2 2 2 2 2 2 2 2 2 2 2 2 2 2 2 2 2 2 2 2 2 2 2 2 2 2 2
left_child=2 5 4 9 7 8 13 22 10 21 32 25 34 18 38 27 20 36 49 26 31 30 40 47 52 39 -16 -11 37 -30 -4 -7 -2 -22 44 42 -9 -13 -8 -5 -1 -12 -15 -24 -6 -36 -19 -14 -23 -3 -20 -17 -10 -25 58 -21 -26 -37 -18 -27 -56
right_child=1 6 3 11 12 16 14 17 24 15 41 28 23 35 19 51 54 46 50 55 33 48 43 53 56 59 -28 -29 29 -31 -32 -33 -34 -35 45 57 -38 -39 -40 -41 -42 -43 -44 -45 -46 -47 -48 -49 -50 -51 -52 -53 -54 -55 60 -57 -58 -59 -60 -61 -62
leaf_value=-0.0089508676862719537 0.0011858648877534756 0.0081535440214314664 -0.0038627448000173544 0.0028836515872042588 -0.0010099616751900785 0.0064473554396776434 -0.011021298901601272 -0.0061156072839614944 0.0085205492185224871 -0.001371717466725189 0.0048378773099007864 0.0063595355227098376 0.0058608435595391504 0.012534134038586839 0.02017154555308551 0.0029144740859403332 0.011452220774151107 -0.0041286044076092165 0.012585668745498282 0.026731699702508861 0.013614615964800498 -0.0012000075448873107 -0.0077557223373645873 -0.0039903589055341271 0.010461775481057325 0.0070266806929898647 0.016146118558868987 8.1879316205113234e-05 0.0031586327728327238 0.0079421722115115903 -0.0023248985003422331 0.0092574207137486129 0.0030393663580457354 0.0091565399864752366 -0.0033338214394426826 0.018707459596471049 -0.0048778813338938107 0.010782539397264359 0.007660389043052088 0.00059493610121763205 -0.0074587581908030142 0.0068956350783737413 0.015846236706109726 -0.0054238164715220702 0.0022193183548524873 -0.00057357307152210927 -0.0019203062523553032 0.011056885349042714 0.0019462489983920967 0.010829305555631908 0.016688854456709559 0.006440344367473691 0.0061236241846022088 0.0018270528349018684 0.013721907773613932 0.020532118070754224 0.01375997546799481 0.015425150774009085 0.014742556883219744 0.011795098406297191 0.01744164117196071
leaf_weight=2658 2146 966 5037 1186 734 1328 21 6334 602 5449 2312 671 336 661 867 557 186 5832 592 202 521 1235 784 55 300 114 676 5101 895 368 4242 1224 3766 464 981 354 4634 304 21 1755 4207 1216 654 2168 461 569 573 124 281 470 186 237 703 246 49 79 149 167 164 26 158
leaf_count=2658 2146 966 5037 1186 734 1328 21 6334 602 5449 2312 671 336 661 867 557 186 5832 592 202 521 1235 784 55 300 114 676 5101 895 368 4242 1224 3766 464 981 354 4634 304 21 1755 4207 1216 654 2168 461 569 573 124 281 470 186 237 703 246 49 79 149 167 164 26 158
internal_value=5.76909e-07 0.00823366 -0.00300136 -0.000553415 -0.00519083 0.00573099 0.0146981 -0.00586996 0.00431213 -0.00154261 0.00355813 0.00356245 7.47907e-05 0.0127163 0.0189877 -0.000342356 0.0096073 -0.00498163 0.0106475 0.0194652 0.00884355 -0.0028033 -0.00744085 0.00471133 0.00836291 0.00181997 0.0184228 -0.000668478 0.00595716 0.00456155 -0.00316057 0.00780019 0.00236772 0.0115311 -0.00121003 0.0152011 -0.00559361 0.00775336 -0.00160326 0.00152026 -0.00803842 0.0055503 0.014196 -0.00604724 0.000232444 -0.00232479 -0.00393216 0.00729331 -0.000612635 0.00903972 0.0135932 0.00397997 0.00723884 0.000737821 0.0144237 0.0250855 0.0115955 0.0176965 0.0130458 0.00802508 0.0166554
internal_weight=79358 21204 58154 27458 30696 15288 5916 27190 11194 22139 9440 5319 3506 4050 1866 11344 4094 17373 2214 1824 3537 10795 9817 761 1754 3081 1543 10550 2238 1263 9279 2552 5912 985 2745 1836 10968 975 42 2941 6865 3528 1315 2952 1195 1550 6405 460 1516 1436 778 794 1305 301 557 281 449 521 350 140 207
internal_count=79358 21204 58154 27458 30696 15288 5916 27190 11194 22139 9440 5319 3506 4050 1866 11344 4094 17373 2214 1824 3537 10795 9817 761 1754 3081 1543 10550 2238 1263 9279 2552 5912 985 2745 1836 10968 975 42 2941 6865 3528 1315 2952 1195 1550 6405 460 1516 1436 778 794 1305 301 557 281 449 521 350 140 207
is_linear=0
shrinkage=0.05


Tree=3
num_leaves=61
num_cat=0
split_feature=2 2 2 4 4 4 2 2 1 1 4 4 2 1 2 4 4 1 4 4 4 4 5 1 2 10 2 5 4 5 1 1 2 2 4 5 5 1 6 1 1 4 1 4 1 7 2 7 4 11 2 1 4 4 2 7 3 2 2 6
split_gain=708.495 120.405 116.464 48.002 33.8876 31.4894 19.1743 13.4858 11.3725 11.0029 9.34063 8.26718 7.29772 7.28567 6.44757 6.2884 5.11 4.19615 3.95785 3.86458 3.80032 3.43767 3.30758 2.68958 2.66543 2.23728 1.98386 1.83552 1.81452 1.93828 1.80833 1.77974 1.70183 1.6713 1.6349 1.6043 1.59761 1.411 1.27316 1.19235 1.18108 1.15117 0.907137 0.899538 0.891323 0.873556 0.8261 0.790441 0.61272 0.582434 0.551939 0.398414 0.393067 0.354873 0.353824 0.303605 0.296176 0.276646 0.120963 0.0832122
threshold=0.29026664826014731 0.17693073473969023 0.49742305689249261 0.29666341344513963 0.38395579107196204 0.3563523201838284 0.10632892738663237 0.679930874475423 0.60042114584648143 0.44900591232909143 0.49683204347046517 0.048271564208460141 0.38684772133983031 0.86447933335174298 0.23466486422942789 0.52191280498963277 0.5050250551596106 0.60042114584648143 0.17353647109415968 0.14923118851525138 0.52191280498963277 0.23573627957836185 0.56027151920995111 0.67117458195667246 0.36282636975362087 -0.034254177909298335 0.061615320480193338 0.54797045411980949 0.40130558029684854 0.46101046843885507 0.22712504394110677 0.86447933335174298 0.33304736842761434 0.40110111397511167 0.25264320782756672 0.30929895068814617 0.35216307780141404 0.68681768393311715 0.010602914444757189 0.80610789636967239 0.36980559180153372 0.56394445566515328 0.86447933335174298 0.72990544008778369 1.0870943481226509 35.140337939889918 0.38684772133983031 77.094731391950134 0.63089846198155852 0.065117065228861473 0.42074892654593571 0.83300131880406669 0.61473461595243994 0.58895232525888486 0.25418513943609639 65.426737144133952 0.21161571999641668 0.41064005790083918 0.57541005434670367 0.0071878160116420108
decision_type=2 2 2 2 2 2 2 2 2 2 2 2 2 2 2 2 2 2 2 2 2 2 2 2 2 2 2 2 2 2 2 2 2 2 2 2 2 2 2 2 2 2 2 2 2 2 2 2 2 2 2 2 2 2 2 2 2 2 2 2
left_child=1 3 5 6 9 8 19 15 12 14 28 -9 32 16 21 17 24 45 30 26 36 -3 41 54 -7 39 -1 53 35 -30 -8 46 -2 -18 -16 -5 56 -38 -21 -13 -20 -12 -19 -29 55 -4 -10 52 -27 -24 -14 -25 -17 -22 -11 -15 -6 -33 -49 -46
right_child=2 4 7 10 20 13 18 11 31 23 22 25 50 44 34 47 33 42 40 38 27 -23 49 51 -26 48 -28 43 29 -31 -32 57 -34 -35 -36 -37 37 -39 -40 -41 -42 -43 -44 -45 59 -47 -48 58 -50 -51 -52 -53 -54 -55 -56 -57 -58 -59 -60 -61
leaf_value=-0.0084825466435291385 0.0017850414164024631 -0.0024195651190748128 0.013026462156780154 -0.00013847474306938811 0.0041575193938487428 0.0052576784728320973 -0.0051006418649386662 -0.0035303002624557569 0.0059218316811805831 0.0011498567252017737 0.004519312505573748 0.019268416275192213 0.0048908727080123598 0.013411742740687222 -0.00041114251511502201 0.015376445621000288 0.0090988114531734242 0.01300883318044182 -0.0034449770568586984 -0.0069285436987258702 0.0077950380184461897 -0.0004884390085091989 -0.0034975512511264844 0.0049270356016212699 0.0083945672864294534 0.015835755372409249 -0.0068206135614412291 0.0040045009040116175 0.0023601939360831711 -0.002397390942223342 -0.0033853183912684521 0.009831038049261373 0.0034928645855002802 0.012266365921386751 0.0012891261799347195 -0.0026348459208904631 0.0022507035380216651 0.008001763434746326 -0.0051540601160388012 0.023754091046507147 -0.00070873515072223758 0.0090782483723504774 0.016179597234098876 0.0085206317270546394 0.011998131617438049 0.0097873981559965205 0.0087426313431268558 0.0068815657830443872 0.020479597908755143 0.0017995219777336815 0.0064282938502330869 0.0083019694651935306 0.017870627436993147 0.010567397104584902 0.0027167247952098452 0.010244039124061848 0.0068463559011315532 0.01290026381197903 0.012969320747256281 0.016744922207562685
leaf_weight=2809 3219 7884 272 1065 173 1304 9046 38 629 1174 273 333 1088 281 4536 380 1123 598 6605 1430 263 3267 60 392 1459 347 5348 432 673 312 1885 248 2703 715 2052 1643 1353 116 3790 401 425 303 460 154 31 1388 487 28 125 333 1451 125 586 291 535 161 343 161 24 228
leaf_count=2809 3219 7884 272 1065 173 1304 9046 38 629 1174 273 333 1088 281 4536 380 1123 598 6605 1430 263 3267 60 392 1459 347 5348 432 673 312 1885 248 2703 715 2052 1643 1353 116 3790 401 425 303 460 154 31 1388 487 28 125 333 1451 125 586 291 535 161 343 161 24 228
internal_value=8.60075e-07 -0.00276597 0.00806737 -0.00457351 5.20455e-05 0.00590292 -0.0052777 0.0147084 0.00424777 -0.000705632 0.000159094 0.0192357 0.00352961 0.00901797 -0.00112166 0.0131949 0.00828816 0.0119224 -0.00420914 -0.00671163 0.00489297 -0.00185433 0.00452657 0.00260647 0.00691836 0.0199595 -0.00739451 0.00719826 -0.000986441 0.000847249 -0.00480564 0.00822407 0.00256585 0.0103397 0.000117806 -0.00165533 0.00356355 0.00271337 -0.00564237 0.0217548 -0.00328039 0.00693775 0.0144061 0.00521235 0.0137823 0.0103287 0.00716397 0.0165724 0.0171169 0.000971294 0.00577364 0.00576713 0.0169116 0.0092767 0.00164459 0.0122949 0.00596432 0.0110799 0.00997733 0.0162443
internal_weight=79358 59090 20268 36000 23090 15288 31338 4980 9986 19965 4662 1244 8461 5302 17739 3736 4601 2718 17961 13377 3125 11151 969 2226 2763 1206 8157 1140 3693 985 10931 1525 5922 1838 6588 2708 1985 1469 5220 734 7030 576 1058 586 701 1660 1116 1018 472 393 2539 517 966 554 1709 442 516 409 52 259
internal_count=79358 59090 20268 36000 23090 15288 31338 4980 9986 19965 4662 1244 8461 5302 17739 3736 4601 2718 17961 13377 3125 11151 969 2226 2763 1206 8157 1140 3693 985 10931 1525 5922 1838 6588 2708 1985 1469 5220 734 7030 576 1058 586 701 1660 1116 1018 472 393 2539 517 966 554 1709 442 516 409 52 259
is_linear=0
shrinkage=0.05


Tree=4
num_leaves=63
num_cat=0
split_feature=2 2 2 4 4 4 2 2 2 1 4 4 1 2 4 4 1 4 5 1 1 1 2 5 4 2 1 4 10 5 4 1 4 4 2 2 5 4 4 5 4 5 10 4 1 4 1 10 4 1 1 2 1 1 4 4 4 4 1 4 10 1
split_gain=639.622 112.01 102.197 37.2603 35.395 27.5283 16.6702 11.1741 10.6343 9.76097 9.43955 8.90609 6.39896 6.02465 5.60865 5.10107 4.74269 4.37986 3.85883 3.27129 2.66298 2.54202 2.41435 2.36838 2.29392 2.21671 2.15798 2.10054 2.0396 1.95885 2.00439 1.79258 1.60482 1.56159 1.47753 1.44006 1.42748 1.39854 1.34967 1.29712 1.24398 1.22138 1.20346 1.09827 1.0021 0.925196 0.87279 0.83619 0.778425 0.776352 0.774285 0.712541 0.690379 0.685521 0.611147 0.589108 0.566046 0.435763 0.40221 0.327616 0.285732 0.261714
threshold=0.28360542551807427 0.47295005485574976 0.15777296755336545 0.30570639392590526 0.26395815986310533 0.3563523201838284 0.59144449456014503 0.10061880623377699 0.20630973951178241 0.53751136006550426 0.43718089777042984 0.44261374844692153 0.7676844408548934 0.34221474807594426 0.39737699452350378 0.46695478884264452 0.50019841388841257 0.57617470411919014 0.037254103624481637 0.60042114584648143 0.32072935285379872 0.62533499083178301 0.36282636975362087 0.47462148419913847 0.14923118851525138 0.84042151804965515 0.78516775420286167 0.15123804201960897 -0.79292839900544565 0.47462148419913847 0.6447889947936255 0.94838191236966496 0.16857465016584602 0.18424549787250119 0.0573257747459524 0.40110111397511167 0.65417420482303312 0.61473461595243994 0.55249922262789553 0.26729214023154357 0.55249922262789553 0.28335171350439908 -0.033003323669842974 0.19392605318515235 1.0870943481226509 0.35945816223953325 0.30441630436024697 -0.012150700385571899 0.24764024948971125 0.65567759550079352 0.30157146708975141 0.34573913962152053 0.52746038841384268 0.80610789636967239 0.76739416771698876 0.21896959287561427 0.3258874007301506 0.5050250551596106 0.99196696577372057 0.49683204347046517 0.0092534540251511897 0.86447933335174298
decision_type=2 2 2 2 2 2 2 2 2 2 2 2 2 2 2 2 2 2 2 2 2 2 2 2 2 2 2 2 2 2 2 2 2 2 2 2 2 2 2 2 2 2 2 2 2 2 2 2 2 2 2 2 2 2 2 2 2 2 2 2 2 2
left_child=2 5 4 8 7 9 15 24 20 13 39 21 17 43 18 19 33 22 28 48 32 41 -7 38 34 42 51 50 -8 40 -31 -20 -4 -10 -1 -15 -19 -25 -12 56 -13 -5 -16 -2 59 -41 -29 57 -3 -18 -9 -11 -22 -21 -49 -26 -6 -17 -28 -14 -27 -23
right_child=1 6 3 11 10 12 14 27 16 26 23 29 44 35 25 47 49 36 31 53 52 61 -24 37 55 60 58 46 -30 30 -32 -33 -34 -35 -36 -37 -38 -39 -40 45 -42 -43 -44 -45 -46 -47 -48 54 -50 -51 -52 -53 -54 -55 -56 -57 -58 -59 -60 -61 -62 -63
leaf_value=-0.0081737748867967419 0.0005877664552695176 0.0067437866976920507 -0.0036078748181879146 0.0028800567950890517 -0.0012927576225344151 0.0051388406317892195 -0.0097443497284419034 -0.0052199282164231966 -0.0013816257003297229 0.0043848025425402091 0.0038353776200121571 0.005839366884622707 0.0098033473959605686 0.0035478374619832679 0.018959853399798665 0.011725691929273308 0.0018612868472382153 0.011841651885996084 0.012993699854976004 0.010848808754131255 -0.0012017340938003493 0.005562460383309837 0.0079096961296594541 -0.0010368632028424777 -0.0060042851965681626 0.025063922598020184 0.0083327353439346091 -0.0040330045507785545 0.01102037891390778 0.0027928021995003755 0.0071766958576789802 0.018575253841111958 -0.002272826981677108 -0.00012052992579514646 -0.0066454314121794263 0.0054974960751394348 0.0078751889227406391 0.0038885772426677291 0.0093179947410244497 -0.0032640162621080451 0.009755505685514948 0.00067009787267036059 0.015625684573000679 0.0022466494012350307 0.015051151152683776 -0.0012671465862784336 -0.0019221089761341339 0.011456529565144678 0.0091785647241603759 0.0048578375840993846 -0.0028649658374694286 0.0067864316923645631 0.0015841934512879283 0.014082115314330377 0.017028268166442415 -0.004556782277125377 0.0012701533161863163 0.015945820949422342 0.011279021812456281 0.012332254294431588 0.019153040496052289 0.010360410668146917
leaf_weight=2434 1634 530 4654 793 766 1694 26 6919 4720 570 408 675 353 2477 735 99 589 597 765 401 1323 210 1514 367 3151 142 373 6055 20 905 371 193 4439 5134 4965 1575 400 235 159 1867 305 2998 547 2604 226 858 546 429 1063 351 382 751 265 361 66 975 297 479 215 305 60 38
leaf_count=2434 1634 530 4654 793 766 1694 26 6919 4720 570 408 675 353 2477 735 99 589 597 765 401 1323 210 1514 367 3151 142 373 6055 20 905 371 193 4439 5134 4965 1575 400 235 159 1867 305 2998 547 2604 226 858 546 429 1063 351 382 751 265 361 66 975 297 479 215 305 60 38
internal_value=1.13121e-06 0.0074349 -0.00270935 -0.000516634 -0.00471317 0.00517316 0.0132769 -0.00546668 -0.00150839 0.00367294 -0.000846715 0.00286559 0.00817749 0.00292897 0.0164001 0.0110046 -0.000400969 0.00735801 0.0134628 0.00968629 -0.00262692 0.0014577 0.00645015 0.00307751 -0.00661915 0.0183736 0.00689782 -0.0045105 -0.000567436 0.00538219 0.00407597 0.0141416 -0.00295701 -0.000725173 -0.00714991 0.00430807 0.0102648 0.000880827 0.00539533 -0.00205957 0.00707196 0.00113433 0.0175544 0.00160852 0.0120572 -0.00263781 -0.00385948 0.0138815 0.00837638 0.0029895 -0.00509781 0.00575803 -0.000732977 0.0124036 0.0122423 -0.00566463 -0.000571466 0.0152531 0.00943584 0.0110001 0.0234358 0.00635637
internal_weight=79358 21204 58154 27770 30384 15288 5916 25427 21475 10199 4957 6295 5089 8290 2488 3428 10794 4205 1004 2355 10681 4039 3208 1169 11525 1484 1909 13902 46 2256 1276 958 9093 9854 7399 4052 997 602 567 3788 980 3791 1282 4238 884 2725 6601 1073 1593 940 7301 1321 1588 762 495 4126 1063 578 588 658 202 248
internal_count=79358 21204 58154 27770 30384 15288 5916 25427 21475 10199 4957 6295 5089 8290 2488 3428 10794 4205 1004 2355 10681 4039 3208 1169 11525 1484 1909 13902 46 2256 1276 958 9093 9854 7399 4052 997 602 567 3788 980 3791 1282 4238 884 2725 6601 1073 1593 940 7301 1321 1588 762 495 4126 1063 578 588 658 202 248
is_linear=0
shrinkage=0.05


Tree=5
num_leaves=60
num_cat=0
split_feature=2 2 2 5 1 5 2 2 2 1 5 5 1 5 2 1 1 5 1 2 2 10 2 11 1 1 11 5 2 5 1 5 1 7 10 7 1 2 1 2 5 7 1 11 11 11 1 11 1 1 5 1 1 7 2 7 7 5 7
split_gain=577.562 98.5557 95.1977 26.0572 21.2757 15.5308 15.246 13.4067 11.2868 7.21303 6.81568 5.29362 4.90354 4.35941 4.26324 3.27642 3.09092 2.88103 2.68662 2.34382 2.24298 1.89838 1.87686 1.86931 1.79604 1.69975 1.37185 1.31107 1.1838 1.03242 0.993721 0.87981 0.877389 0.841953 0.787311 0.729895 0.699528 0.694095 0.691211 0.687136 0.662446 0.628774 0.624661 0.580294 0.570288 0.56814 0.551286 0.484339 0.447114 0.40356 0.378668 0.211382 0.2006 0.151021 0.134012 0.12593 0.0325695 0.0115945 0.0113151
threshold=0.29026664826014731 0.18156312737479038 0.49742305689249261 0.24267290900916963 0.71876978951829762 0.31174139021342401 0.10299709193063709 0.38684772133983031 0.679930874475423 0.44900591232909143 0.057713058738327758 0.32852472035655417 0.83300131880406669 0.34578526926737568 0.23466486422942789 0.62533499083178301 0.28631995458262105 0.34225984297593653 1.0870943481226509 0.061615320480193338 0.14273582888056877 -0.034254177909298335 0.57541005434670367 0.055864820957573495 0.67117458195667246 0.37439510200325021 0.22511424085217005 0.20195338937371024 0.13565188410640464 0.27415477292207291 0.80610789636967239 0.45473621393983726 0.18773922999008566 63.644950957894409 -0.041786245045811209 44.382954909480624 0.9050769626209425 0.33304736842761434 0.41931320375705211 0.43824669646591358 0.19415514034314579 66.358139862938188 0.9050769626209425 0.11045668275196983 0.059929067398217746 0.23315885166427111 1.0870943481226509 0.02584788594714214 0.26743579413859492 0.99196696577372057 0.41098430595552876 0.56857250373846469 0.27820378406544433 64.086476422466632 0.41566598522174375 17.397630764438805 50.842069893641586 0.37863305366707961 78.026649130088387
decision_type=2 2 2 2 2 2 2 2 2 2 2 2 2 2 2 2 2 2 2 2 2 2 2 2 2 2 2 2 2 2 2 2 2 2 2 2 2 2 2 2 2 2 2 2 2 2 2 2 2 2 2 2 2 2 2 2 2 2 2
left_child=1 3 4 6 7 9 19 11 12 14 -10 25 22 28 27 26 20 39 33 47 -8 30 29 52 51 -2 31 -3 44 -4 -12 -7 -21 36 -19 -24 -6 -13 -18 -9 -16 55 53 -25 -5 -35 -23 -1 -30 -26 -28 -11 -15 -17 56 -14 -20 -44 -43
right_child=2 5 8 13 18 15 16 17 10 24 21 37 41 23 40 42 38 34 54 32 -22 46 35 43 49 -27 50 -29 48 -31 -32 -33 -34 45 -36 -37 -38 -39 -40 -41 -42 58 57 -45 -46 -47 -48 -49 -50 -51 -52 -53 -54 -55 -56 -57 -58 -59 -60
leaf_value=-0.0084939016945089815 0.0020421848129075918 -0.002055853905768935 0.0079075471092449959 -0.0045127158081659895 0.0090836512743434385 0.0013524099316642917 -0.0045831236261462361 0.005035731506008217 -0.0032296652817286743 0.0011424234063868528 0.017467392963569191 0.0043907060365166095 0.011492999046034106 -0.0044766796677877486 -0.00040018998457674437 0.0065339741105815783 -0.0023890150425375551 0.0096588270788484417 0.012103389351488018 -0.0058099361407489263 -0.003381804452830409 0.014880311208446182 0.014038501319019162 -0.00034835144192194484 0.0049211580450131964 0.0039572321355254257 0.0029937747132932455 -0.00082350653053106472 -0.0019405704419335227 0.010655500128984231 0.021570062133866141 0.0030393261369284362 -0.0039763325421022875 0.0061896472378486491 0.0074598036067469375 0.011284652364788686 0.011746228495668443 0.0059895449634178172 -6.5528930293157518e-05 0.0066957803741267349 0.00066932211168866393 0.012656178011594316 0.0077791128343059901 0.0011373633955535686 -0.002723735339982956 0.0096556327329238977 0.022272482016256881 -0.0068903273490711252 -0.00025946623290284596 0.01119396421685815 0.0052971189358891387 0.0024936397356155274 0 0.0040160971294445477 0.015857906754122301 0.016028575769358379 0.015951411104010001 0.011860605480900982 0.009666103447477023
leaf_weight=613 4233 5712 525 587 802 2827 8653 1556 38 911 333 1394 36 232 2845 250 1386 719 138 7039 7181 438 497 1231 370 1611 379 3499 1805 1220 401 1077 750 335 1121 627 417 1444 422 1133 2941 78 20 1399 2076 209 34 3332 516 29 377 445 26 104 146 703 30 56 50
leaf_count=613 4233 5712 525 587 802 2827 8653 1556 38 911 333 1394 36 232 2845 250 1386 719 138 7039 7181 438 497 1231 370 1611 379 3499 1805 1220 401 1077 750 335 1121 627 417 1444 422 1133 2941 78 20 1399 2076 209 34 3332 516 29 377 445 26 104 146 703 30 56 50
internal_value=1.36955e-06 -0.00249675 0.00728448 -0.0040604 0.00532755 0.000169645 -0.00474506 0.00458663 0.0132887 -0.000565065 0.0174308 0.00343437 0.0119039 -0.00150455 -0.000920267 0.00258831 -0.00381493 0.00679314 0.0100334 -0.00614264 -0.00403887 0.018088 0.0108929 3.95111e-05 0.00246619 0.00257154 0.00220038 -0.0015884 -0.0024001 0.00983662 0.0197419 0.00181972 -0.00563455 0.00925539 0.00832659 0.0125182 0.0100075 0.00520779 -0.0018498 0.00573927 0.000142596 0.0152272 0.00676597 0.00044019 -0.0031215 0.0075457 0.0154693 -0.00714286 -0.00156926 0.00541642 0.00415449 0.00159105 -0.00401155 0.00582174 0.0143428 0.0158302 0.0129104 0.0109664 0.0116109
internal_weight=79358 59090 20268 37248 15288 21842 29376 13211 4980 16752 1244 8682 3736 7872 14997 5090 17642 4529 2077 11734 15834 1206 2869 2888 1755 5844 4660 9211 4984 1745 734 3904 7789 1763 1840 1124 1219 2838 1808 2689 5786 867 430 2630 2663 544 472 3945 2321 399 756 1356 258 354 314 739 168 76 128
internal_count=79358 59090 20268 37248 15288 21842 29376 13211 4980 16752 1244 8682 3736 7872 14997 5090 17642 4529 2077 11734 15834 1206 2869 2888 1755 5844 4660 9211 4984 1745 734 3904 7789 1763 1840 1124 1219 2838 1808 2689 5786 867 430 2630 2663 544 472 3945 2321 399 756 1356 258 354 314 739 168 76 128
is_linear=0
shrinkage=0.05


Tree=6
num_leaves=63
num_cat=0
split_feature=2 2 4 2 4 4 2 2 2 2 2 4 4 4 5 5 4 5 4 4 6 2 2 10 4 4 2 6 2 4 2 6 4 4 10 2 4 5 10 14 2 7 7 5 2 2 6 2 2 4 2 6 2 4 2 4 14 2 6 7 7 2
split_gain=521.665 93.237 82.5469 49.3233 24.0276 20.3061 13.6132 9.81566 8.94358 7.34856 6.43811 4.85598 4.40235 3.80875 3.59459 3.11386 2.83713 2.77393 2.48909 2.18814 2.06925 2.00597 1.89731 1.80423 1.73784 1.57406 1.57055 1.54907 1.37702 1.36654 1.36183 1.21907 1.12279 1.11034 1.03941 1.02773 0.8793 0.858131 0.824123 0.815786 0.786812 0.775398 0.761329 0.701956 0.697837 0.669655 0.597082 0.580049 0.576969 0.556754 0.551802 0.51779 0.508354 0.484135 0.457019 0.412333 0.412213 0.371843 0.354898 0.32689 0.309391 0.267854
threshold=0.28161336188721103 0.47295005485574976 0.26395815986310533 0.14370440354887373 0.39290485672938197 0.43718089777042984 0.59144449456014503 0.20630973951178241 0.36282636975362087 0.19343946393329645 0.091244022721576806 0.39737699452350378 0.46695478884264452 0.57617470411919014 0.47462148419913847 0.037254103624481637 0.61473461595243994 0.71414180057760279 0.55249922262789553 0.24764024948971125 0.011989790554240206 0.37066364765489518 0.84042151804965515 -0.79292839900544565 0.15123804201960897 0.14923118851525138 0.679930874475423 0.010345642740655652 0.22113033558448067 0.22868552515121585 0.2458083055441245 0.059555856993688601 0.16653023529095876 0.31795333357215289 0.88786632106200425 0.40110111397511167 0.24764024948971125 0.65417420482303312 -0.02063423636028108 3977700.0000000005 0.33304736842761434 22.52827783804798 72.321151494441651 0.37863305366707961 0.034361073417647992 0.42074892654593571 0.015633226061320515 0.41064005790083918 0.32171093915743165 0.17041669662785902 0.18156312737479038 0.0033717438086319305 0.19834017353811836 0.3258874007301506 0.23018741287805078 0.15970469023845824 241535.00000000003 0.17483655022555941 0.15019138500257159 65.426737144133952 49.861267256252866 0.11393851843473179
decision_type=2 2 2 2 2 2 2 2 2 2 2 2 2 2 2 2 2 2 2 2 2 2 2 2 2 2 2 2 2 2 2 2 2 2 2 2 2 2 2 2 2 2 2 2 2 2 2 2 2 2 2 2 2 2 2 2 2 2 2 2 2 2
left_child=2 4 3 10 8 9 12 25 19 27 20 15 36 21 18 23 28 -18 52 48 44 43 34 -8 61 57 -17 39 -16 47 49 54 -22 -29 -13 37 58 -15 -38 -4 -21 -24 46 -6 -1 -31 -14 -10 -2 -9 -27 -26 -7 -33 -11 -32 -23 -5 -3 -37 -20 -12
right_child=1 6 5 7 13 14 11 30 29 31 24 22 42 35 16 26 17 -19 60 40 32 56 41 -25 51 50 -28 33 -30 45 55 53 -34 -35 -36 59 38 -39 -40 -41 -42 -43 -44 -45 -46 -47 -48 -49 -50 -51 -52 -53 -54 -55 -56 -57 -58 -59 -60 -61 -62 -63
leaf_value=-0.0086998621613001252 0.0010259562824237926 0.0065029515059021022 -0.0044615293678781391 -0.0037301069669839013 0.0075015595001865238 0.0037210017500121147 -0.0091469392328764557 -0.0016100778254954857 0.0032659851159323669 -0.00022515483698086993 -0.0053521432397986525 0.016234164576976916 0.010461976670406575 0.010460602002078564 -1.4062269929744482e-05 0.010869875240140509 0.0080003280587346154 0.0015562408085009157 0.010660387347522983 0.0027704466065409314 -0.0060513995928254283 0.0053696579686572567 0.012922462194692345 0.010382582383851211 -0.0048833124514107221 -0.0025832836553049002 0.01510680254571559 -0.00179541262716149 0.0035158506743576063 0.0052655139941139217 -0.00056638103870808299 0.0014398453616996289 -0.0045022114040392412 -0.00024934181730455746 0.0093006623327506321 0.012798197326015663 0.010614969421629837 0.0071677404804588521 0.0082557161941950435 -0.001545996277434883 0.0045078965324889001 0.02274584448181613 0.0080130778417775508 0.0049825739826921235 -0.0067962298131632529 0.0069304447308130741 0.013735355918413766 0.0051476603985942601 0.0022584607195532637 -0.00060239150751424404 -0.0016860334531643003 -0.003578938300252884 0.0059022328469323327 0.0029993753670448636 0.001134615374318764 0.00057432111598246477 0.0086191410881104047 -0.0028784394099465264 0.0091209379237218585 0.0086507094304665542 0.00777269876209592 -0.0046930356692571739
leaf_weight=617 2298 540 561 3214 385 631 26 2607 984 1070 3110 1217 213 498 765 550 398 292 205 2085 3995 123 31 20 951 4852 408 2325 429 1674 1204 1042 1726 2337 65 370 768 373 845 433 978 171 94 1171 3090 1029 766 749 1651 2941 2731 4699 507 992 1444 2300 1157 2308 202 75 252 3814
leaf_count=617 2298 540 561 3214 385 631 26 2607 984 1070 3110 1217 213 498 765 550 398 292 205 2085 3995 123 31 20 951 4852 408 2325 429 1674 1204 1042 1726 2337 65 370 768 373 845 433 978 171 94 1171 3090 1029 766 749 1651 2941 2731 4699 507 992 1444 2300 1157 2308 202 75 252 3814
internal_value=1.56436e-06 0.00664823 -0.00247084 -0.00352227 0.00462028 0.000922083 0.0119932 -0.00185661 0.00343723 -0.000202246 -0.00519928 0.014816 0.00993935 0.0078794 0.00422031 0.0120836 0.0027343 0.0052867 0.00596964 0.00232383 -0.00618892 0.00683715 0.0166518 -0.000509216 -0.00445641 -0.00273131 0.0126934 -0.00140577 0.00125192 0.00519514 -0.000589561 0.00129336 -0.00558576 -0.00102168 0.015894 0.0101148 0.00871473 0.00906603 0.00938801 -0.00319934 0.00332813 0.021334 0.0126118 0.00561347 -0.00711668 0.00590351 0.0130397 0.00408463 0.00154295 -0.00107701 -0.00226107 -0.0038002 0.0047015 0.002204 0.000554027 0.000180891 0.00831522 -0.00337563 0.00723371 0.0121314 0.00909942 -0.00499053
internal_weight=79358 21516 57842 44159 15600 13683 5916 22157 11448 10204 22002 2488 3428 4152 3479 1004 1884 690 1595 7012 9428 2836 1484 46 12574 13105 958 5656 1194 4436 9052 4548 5721 4662 1282 1316 2355 871 1613 994 3063 202 1073 1556 3707 2703 979 1733 3949 5548 7583 5650 1138 2034 2514 3504 1280 5522 742 445 457 6924
internal_count=79358 21516 57842 44159 15600 13683 5916 22157 11448 10204 22002 2488 3428 4152 3479 1004 1884 690 1595 7012 9428 2836 1484 46 12574 13105 958 5656 1194 4436 9052 4548 5721 4662 1282 1316 2355 871 1613 994 3063 202 1073 1556 3707 2703 979 1733 3949 5548 7583 5650 1138 2034 2514 3504 1280 5522 742 445 457 6924
is_linear=0
shrinkage=0.05


Tree=7
num_leaves=63
num_cat=0
split_feature=4 1 1 3 4 3 1 1 3 3 3 3 3 4 3 1 11 4 3 4 11 1 1 10 10 6 4 7 11 6 11 10 11 7 1 11 10 10 11 4 7 4 6 6 10 3 4 6 7 1 1 3 11 6 11 3 11 4 3 10 3 11
split_gain=332.493 90.0974 89.1256 44.3711 33.358 15.3908 13.4054 13.3211 10.7191 8.13165 7.30358 4.6497 4.07245 3.88835 3.66773 3.59383 3.44384 3.32974 3.19946 2.29373 2.22868 2.11534 2.05184 2.43888 1.77392 1.75002 1.71436 1.70376 1.68982 1.45408 1.44254 1.41205 1.26982 1.25605 1.21026 1.12873 1.09548 1.04302 0.996993 0.970719 0.923043 0.784629 0.714014 0.713894 0.70107 0.665583 0.631442 0.592029 0.559019 0.53188 0.494459 0.490549 0.475348 0.451177 0.389796 0.37653 0.367876 0.360005 0.306671 0.283307 0.255523 0.111863
threshold=0.28806605081562758 0.36127145538156796 0.56857250373846469 0.20399007908125941 0.49683204347046517 0.31341001627322962 0.86447933335174298 0.61297541628839125 0.14136851125032707 0.31819069848190379 0.32565090972549399 0.20589198406332029 0.24947728224927943 0.16372261095793508 0.37989933246363861 0.15101536676471175 0.30237159623379378 0.17901956098094571 0.31341001627322962 0.14630195702221099 0.070200713532573192 0.17862461843579688 0.86447933335174298 -1.2028601896905249 -0.066571808743056418 0.019081980529631764 0.52191280498963277 45.608197966973428 0.21301245970399579 0.0055070173272952902 0.19200633676785842 0.0019566645759347408 0.062808619950686415 65.426737144133952 0.1767804273467167 0.21540116964496447 -0.040398162585476217 -0.02063423636028108 0.2359295699740282 0.57617470411919014 44.509583248118318 0.66342203965277025 0.06173586632408129 0.072867113602826897 -0.012150700385571899 0.36175884676611897 0.68068152942479176 0.015633226061320515 58.79339279225163 0.23855204744785952 0.51814926360693214 0.33838328467835893 0.38704612690186513 0.015633226061320515 0.36995894732000129 0.18262830288801399 0.049070924155665864 0.24764024948971125 0.21369032259985862 -0.090161686503091518 0.27209790023979263 0.24523846895683662
decision_type=2 2 2 2 2 2 2 2 2 2 2 2 2 2 2 2 2 2 2 2 2 2 2 2 2 2 2 2 2 2 2 2 2 2 2 2 2 2 2 2 2 2 2 2 2 2 2 2 2 2 2 2 2 2 2 2 2 2 2 2 2 2
left_child=1 3 4 8 5 11 18 12 15 20 13 32 43 34 33 19 36 21 39 -1 56 -10 31 -24 53 -13 52 38 44 -22 -15 45 -2 47 -5 50 -7 -30 -11 48 -18 -26 -19 55 -12 -9 -29 -8 -4 -17 -14 -33 -20 -16 -25 -3 -6 -37 -45 -28 -41 -35
right_child=2 7 6 10 9 16 14 22 17 27 28 25 35 30 24 49 40 42 26 -21 29 -23 23 54 41 -27 59 46 37 -31 -32 51 -34 61 -36 57 -38 -39 -40 60 -42 -43 -44 58 -46 -47 -48 -49 -50 -51 -52 -53 -54 -55 -56 -57 -58 -59 -60 -61 -62 -63
leaf_value=-0.0059254434233524736 -0.0019854397668473151 -0.00068476624731971132 0.0071619935425895169 -0.0028881852877157676 -0.0037413317033057215 0.00534797330214286 0.010302298098014525 0.006466390837685904 -0.0040738052277767729 0.0092997728187018801 0.0013481290746158907 0.00064685567350491633 0.0021694311060579926 -0.0010046839120031372 0.015040354038355873 -0.0039943440450626649 0.0096211965910605532 -0.0026144115500380781 0.008530120485612849 -0.004441483945725219 0.0011567829206740117 -0.0024172639841823782 -0.0054986940868771992 0.0096180703974054239 0.012735327060119359 0.0026711660948607399 0.014243877510768624 0.0078209123097384495 0.0046551636177297878 0.0061970902464628707 0.00068728996913700719 0.0035440421795380228 0.00027596427434220414 0.0076372077207580756 -0.0012887845802094292 0.0043112682430854919 0.0033876437210956147 0.0016183009929069368 0.013389939305431834 0.0085212486290372914 0.006105436662996541 0.017427831053247918 -0.0014969158388727075 0.0011430911416532245 -0.00043819397128016033 0.010339933206285736 0.010843904584802064 0.013578039591283626 0.0048204346482528942 -0.0026615313544056021 0.0042496142433093385 0.006399548657161103 0.012016670719040121 0.019176730458356387 0.014547629415893673 0.00067810089029754635 0.0014691840969805476 0.0069031364547141316 0.0030769550150404161 0.011422237722887413 0.012647380818013254 0.010222688861923325
leaf_weight=7270 749 894 686 3882 42 1091 220 499 7595 266 937 1501 1177 7166 127 2197 363 3593 881 4148 156 2614 25 416 424 3766 211 783 408 2249 1524 626 3594 163 1724 442 2178 952 427 149 432 137 2431 744 1319 156 250 650 453 1197 390 210 127 380 54 1165 156 216 292 302 72 110
leaf_count=7270 749 894 686 3882 42 1091 220 499 7595 266 937 1501 1177 7166 127 2197 363 3593 881 4148 156 2614 25 416 424 3766 211 783 408 2249 1524 626 3594 163 1724 442 2178 952 427 149 432 137 2431 744 1319 156 250 650 453 1197 390 210 127 380 54 1165 156 216 292 302 72 110
internal_value=1.6894e-06 -0.00207179 0.0050531 -0.00284479 0.00340044 0.00218861 0.0108934 0.003107 -0.00398818 0.00722568 -0.000862675 0.00109685 0.0018006 -0.0013706 0.0138279 -0.0049615 0.00476813 -0.00309951 0.00863551 -0.00538722 0.00545309 -0.00365042 0.00660135 0.00941107 0.0159626 0.00209546 0.0102216 0.00989134 0.00114386 0.00587285 -0.000707335 0.00565951 -0.000113257 0.0118167 -0.00239753 0.00343219 0.00404485 0.00253578 0.0118428 0.00685174 0.0077271 0.0139191 -0.0021646 0.000625307 0.000301785 0.00741092 0.00856713 0.0127682 0.00624015 -0.00352668 0.00269272 0.0042741 0.00898583 0.0181821 0.0102247 8.38834e-05 0.000325551 0.00517887 0.00169542 0.012618 0.00993895 0.00873073
internal_weight=79358 56263 23095 48957 18003 13674 5092 7306 31045 4329 17912 9610 5320 14296 2211 14812 4064 16233 2881 11418 2603 10209 1986 495 1068 5267 1521 1726 3616 2405 8690 1491 4343 1143 5606 2225 3269 1360 693 1360 795 561 6024 3095 2256 655 1033 870 1139 3394 1567 836 1008 507 470 2059 198 658 1036 513 221 273
internal_count=79358 56263 23095 48957 18003 13674 5092 7306 31045 4329 17912 9610 5320 14296 2211 14812 4064 16233 2881 11418 2603 10209 1986 495 1068 5267 1521 1726 3616 2405 8690 1491 4343 1143 5606 2225 3269 1360 693 1360 795 561 6024 3095 2256 655 1033 870 1139 3394 1567 836 1008 507 470 2059 198 658 1036 513 221 273
is_linear=0
shrinkage=0.05


Tree=8
num_leaves=60
num_cat=0
split_feature=2 2 2 4 4 4 2 1 2 4 1 4 2 1 4 2 5 4 4 4 4 1 2 4 5 10 1 5 5 5 4 2 4 1 1 1 4 1 4 4 5 2 4 7 4 6 6 7 7 2 6 2 15 6 7 4 2 1 6
split_gain=436.625 89.6074 60.4386 30.6897 22.8513 16.283 13.8468 8.12098 7.66248 6.03466 6.01408 5.33192 4.78002 4.08154 3.51036 3.23888 2.93381 2.8191 2.81056 2.77822 2.60331 2.37699 2.04628 1.95587 1.88232 1.59642 1.45325 1.45174 1.43234 1.41307 1.36312 1.36254 1.28733 1.28317 1.21096 1.11068 0.94112 0.915559 0.888355 0.843011 0.770805 0.726609 0.679132 0.606868 0.574521 0.545243 0.515347 0.513958 0.51384 0.448489 0.440591 0.402288 0.35517 0.307656 0.306073 0.285744 0.210576 0.183585 0.147454
threshold=0.31061728447238762 0.18400690873082134 0.50635700453955723 0.30570639392590526 0.38395579107196204 0.3563523201838284 0.11192273374502017 0.50019841388841257 0.679930874475423 0.49683204347046517 0.55774445111544169 0.048271564208460141 0.24258385515204756 0.94838191236966496 0.55249922262789553 0.38684772133983031 0.56027151920995111 0.54225899250268628 0.51352049657773868 0.2034761466666182 0.15123804201960897 0.60042114584648143 0.061615320480193338 0.22461658563200401 0.34894233557120624 -0.033003323669842974 0.7676844408548934 0.50604206820273301 0.35521840872946636 0.5362352999090082 0.38868712910779374 0.40572818299465768 0.28035960355723116 0.28350390266310371 0.78516775420286167 0.62533499083178301 0.40130558029684854 0.32450529191069993 0.57617470411919014 0.20103889109728942 0.2192289270650796 0.84042151804965515 0.6447889947936255 61.770675543235733 0.33414709668118819 0.16103093873798327 0.011711983354223956 63.864024349343964 68.53884324900757 0.41064005790083918 0.005082179234346053 0.41064005790083918 3542350.7000000007 1.5829966808078748 58.46403019424131 0.43718089777042984 0.53848379568312976 0.9050769626209425 0.0016311477693904087
decision_type=2 2 2 2 2 2 2 2 2 2 2 2 2 2 2 2 2 2 2 2 2 2 2 2 2 2 2 2 2 2 2 2 2 2 2 2 2 2 2 2 2 2 2 2 2 2 2 2 2 2 2 2 2 2 2 2 2 2 2
left_child=1 3 5 6 7 10 19 12 14 24 15 -10 23 18 21 39 38 28 31 22 37 44 -1 -3 30 41 53 54 55 -20 -5 -7 -14 -22 49 -30 -26 -8 -11 -2 -21 -13 -29 -23 -4 -27 -18 58 52 -12 -17 -36 -16 -9 -19 -6 -50 -28 -15
right_child=2 4 8 9 17 13 20 26 11 16 34 25 32 47 48 50 46 27 29 40 33 43 -24 -25 36 45 57 42 35 -31 -32 -33 -34 -35 51 -37 -38 -39 -40 -41 -42 -43 -44 -45 -46 -47 -48 -49 56 -51 -52 -53 -54 -55 -56 -57 -58 -59 -60
leaf_value=-0.0064862508571639846 0.0013897165753079524 -0.0016983120592854847 0.0073757425865359928 -0.00019671575470645619 0.0042439441520164718 0.0049898324797959335 -0.0039109468915336284 0.002092561156412339 -0.0030876841809218511 0.0040153578308791942 0.0046531632746479512 0.016181600198322169 8.5248787994447045e-05 0.0076924512189413836 0.012672812879982762 0.0032433808653378662 -0.0032400437023539052 0.0098481123810974739 0.010359941093205685 -0.0024129646054406751 -0.0028105106710726866 0.012173914187231053 -0.0050593089587944017 -0.00030816448136870053 -0.0026649130671986196 0.012270768288084313 0.0050727349983130414 0.0032264949645125843 0.0019937777459577049 0.0072935242892270035 0.0032379376760171955 0.0073690845919678841 0.0016734888318434304 -0.0012182846173461152 0.0071749617116246521 0.0058855288243801276 -0.00038503001918253221 -0.0016929554872999965 0.0078796312483011624 0.0028647209183512044 -0.0042795370347349839 0.02018676122177605 0.0063442669321992556 0.0090589793958491243 0.0094066511137110009 0.01672530456725508 0.0012681313308233011 0.0085301227577763393 0.0047274849563837054 0.0068523496258181618 0.0049046670910814832 0.01004276893991345 0.015250547650203448 0.0050799614027951315 0.0066872229125962482 0.0065702167396996768 0.010971862067795032 0.0079269264594596985 0.012653260621911045
leaf_weight=3619 1594 7112 801 1320 326 1584 7742 1490 38 329 632 544 5615 27 395 533 76 245 682 856 8674 814 8673 3943 1125 361 205 347 1578 923 368 1013 1653 1498 325 209 767 506 291 2552 1678 192 381 233 741 109 351 135 23 411 2038 248 341 94 148 266 76 101 407
leaf_count=3619 1594 7112 801 1320 326 1584 7742 1490 38 329 632 544 5615 27 395 533 76 245 682 856 8674 814 8673 3943 1125 361 205 347 1578 923 368 1013 1653 1498 325 209 767 506 291 2552 1678 192 381 233 741 109 351 135 23 411 2038 248 341 94 148 266 76 101 407
internal_value=1.88866e-06 -0.00199037 0.00690574 -0.00349949 0.000419746 0.00516408 -0.00403047 -0.000225965 0.0117917 0.000314685 0.00382843 0.0151698 -0.000548122 0.0074946 0.0105588 0.00316728 0.0036525 0.00414925 0.00695008 -0.00516847 -0.00311401 0.00963383 -0.00548033 -0.00120301 -0.000660837 0.0157513 0.00289325 0.00622136 0.00316855 0.00860527 0.000550585 0.0059223 0.000447339 -0.00257666 0.00656976 0.00245477 -0.001744 -0.0037757 0.00584689 0.00229931 -0.00365217 0.0172592 0.00487151 0.0114948 0.00836039 0.0133478 0.000448362 0.0114877 0.013406 0.00553029 0.0045636 0.00844022 0.013893 0.00227609 0.00869044 0.00530694 0.00963293 0.00605384 0.0123745
internal_weight=79358 61586 17772 37873 23713 13104 33246 20213 4668 4627 8333 1244 18323 4771 3424 6717 1047 3500 4202 14826 18420 2589 12292 11055 3580 1206 1890 1121 2379 1605 1688 2597 7268 10172 1616 1787 1892 8248 620 4146 2534 736 728 1047 1542 470 427 569 835 1043 2571 573 736 1584 393 592 99 306 434
internal_count=79358 61586 17772 37873 23713 13104 33246 20213 4668 4627 8333 1244 18323 4771 3424 6717 1047 3500 4202 14826 18420 2589 12292 11055 3580 1206 1890 1121 2379 1605 1688 2597 7268 10172 1616 1787 1892 8248 620 4146 2534 736 728 1047 1542 470 427 569 835 1043 2571 573 736 1584 393 592 99 306 434
is_linear=0
shrinkage=0.05


Tree=9
num_leaves=63
num_cat=0
split_feature=2 2 4 2 4 2 4 1 2 2 2 1 2 4 4 6 1 4 1 4 1 15 10 10 6 1 4 1 1 4 4 6 2 6 7 11 4 6 4 7 4 4 2 1 7 6 7 4 1 4 2 1 2 6 4 1 4 11 6 1 6 2
split_gain=394.711 79.0315 55.6532 34.8342 17.3228 15.302 13.2567 8.439 6.12971 4.92767 4.90051 4.61071 4.29319 4.26492 3.18519 2.46045 1.99723 1.9539 1.89751 1.84396 1.80085 1.77092 1.68606 1.67992 1.61662 1.60105 1.44947 1.44319 1.44131 1.39354 1.30544 1.26321 1.15034 1.14085 1.07266 0.994901 0.966717 0.946976 0.900115 0.863271 0.845985 0.712113 0.659689 0.577629 0.575285 0.545428 0.52866 0.504194 0.495071 0.480739 0.47465 0.440528 0.421925 0.303855 0.296005 0.266055 0.19355 0.113827 0.103599 0.089563 0.0881547 0.0740843
threshold=0.26951958885701843 0.43824669646591358 0.27111628588657272 0.14273582888056877 0.46066983688256252 0.57541005434670367 0.43718089777042984 0.59034649425218932 0.20365967889106315 0.083593580154778649 0.33595173544859652 0.80610789636967239 0.18156312737479038 0.39737699452350378 0.41561714199565941 0.017846944282095493 0.44303827650587635 0.58895232525888486 0.86447933335174298 0.048271564208460141 0.30441630436024697 3620198.0000000005 -0.0055349020680875707 -0.63377947860541861 0.011989790554240206 0.62533499083178301 0.15123804201960897 0.99196696577372057 0.99196696577372057 0.18116290553687592 0.23728738769225358 0.0021792614176975975 0.84042151804965515 0.004885672223999403 75.562597943380283 0.056491375262978032 0.63089846198155852 0.048825036457626432 0.14923118851525138 37.689810572687726 0.21771517452230113 0.35945816223953325 0.19834017353811836 0.1767804273467167 69.193822648019264 0.0033717438086319305 65.426737144133952 0.17041669662785902 0.50019841388841257 0.66342203965277025 0.034361073417647992 0.65567759550079352 0.10530629346783717 0.0061266309960937701 0.6447889947936255 0.7676844408548934 0.52191280498963277 0.26258239364541919 0.018271020506635809 0.33999215281942408 0.0095964604451859292 0.35256441428678392
decision_type=2 2 2 2 2 2 2 2 2 2 2 2 2 2 2 2 2 2 2 2 2 2 2 2 2 2 2 2 2 2 2 2 2 2 2 2 2 2 2 2 2 2 2 2 2 2 2 2 2 2 2 2 2 2 2 2 2 2 2 2 2 2
left_child=2 4 3 9 7 11 12 10 20 24 29 14 31 19 39 21 47 42 33 23 38 52 32 -7 50 37 43 44 -21 -2 -12 59 -15 61 -16 -19 -35 -14 -5 -3 -26 -33 -17 -11 -9 -28 53 -10 -22 -24 -1 -18 -8 -13 -23 -27 -20 -48 -29 -4 -58 -6
right_child=1 5 6 8 18 13 15 27 16 26 30 46 25 22 34 17 51 35 56 28 48 54 49 -25 40 55 45 58 -30 -31 -32 41 -34 36 -36 -37 -38 -39 -40 -41 -42 -43 -44 -45 -46 -47 57 -49 -50 -51 -52 -53 -54 -55 -56 -57 60 -59 -60 -61 -62 -63
leaf_value=-0.0076915110900017975 0.00014014174215607283 0.0081093025013735075 -0.0050303391734834186 -0.0031277400524210418 0.0016073689549559293 -0.0065688475644997057 -0.0063072652947860509 0.0055695484076413743 -0.0013587728271995184 -0.004622825744817329 0.0024607532615386683 0.0089148074573592636 -0.00013610862698894451 0.014836619119607961 0.0097315807775915121 0.002306114331582372 0.00091389596886961232 -0.0024244838509405258 0.008442192369733344 0.0098628840993940179 -0.0012809459131003056 0.0023207788903382609 0.011113985984432202 0.011247061131441076 -0.0051652414967185666 0.0033076796640052635 -0.0044322352051720656 0.0074282273667952495 0.014854078939552774 0.0017708692791999694 0.0041289013537947287 -0.0015656063687374735 0.019999508206582778 0.0062509477037256114 0.0039908611476842442 0.0063816930332310706 0.0086431877127779739 0.0014013944435215344 -0.0022192885967251687 0.0057355407524925621 -0.003028576567708476 -0.00016415588418959855 0.0043022833540756573 -0.0035144276110100426 0.0030613251805907161 -0.0031687705064186765 0.0066266721680566867 -0.00054612183145219258 0.00096266868604437329 0.01444035499610241 -0.0060801221129972343 0.0035062351066072655 -0.0013048665173440936 0.012381008296517251 0.0062348341764729533 0.0067597431569476618 0.0085381191436114719 0.0099597184156947245 0.0098020776897360055 -0.0012902777674405471 0.012179489271729115 0.0039508609769506042
leaf_weight=619 1831 494 237 4844 98 30 52 1401 3579 6281 2083 98 2051 870 1135 1012 725 32 98 926 1604 304 436 22 4206 159 1059 126 183 4667 2769 3000 142 1410 93 848 645 1946 6448 2105 540 1311 729 1524 290 5270 76 4158 287 190 2515 215 234 596 60 99 42 80 186 22 201 65
leaf_count=619 1831 494 237 4844 98 30 52 1401 3579 6281 2083 98 2051 870 1135 1012 725 32 98 926 1604 304 436 22 4206 159 1059 126 183 4667 2769 3000 142 1410 93 848 645 1946 6448 2105 540 1311 729 1524 290 5270 76 4158 287 190 2515 215 234 596 60 99 42 80 186 22 201 65
internal_value=2.06873e-06 0.005457 -0.00227733 -0.0031052 0.00346388 0.00969748 0.00072504 0.00274069 -0.00169089 -0.00450923 0.00221156 0.0079413 -0.000282261 0.0126263 0.00719393 0.00344347 -0.000657973 0.00412655 0.00723306 0.010272 -0.00237028 0.000679315 0.0142847 0.000944304 -0.00551325 0.000859827 -0.00394877 0.0057339 0.0107036 0.00131223 0.00341444 -0.00134668 0.015585 0.00668701 0.00930449 0.0060534 0.00700807 0.000611361 -0.00260968 0.0061916 -0.00492387 -0.00114071 0.00314682 -0.00440752 0.00514442 -0.00338164 0.0112879 -0.000922813 -0.000937458 0.012153 -0.00640234 0.00151523 -0.00225062 0.0119123 0.00299497 0.0046726 0.0107403 0.00842032 0.00888618 -0.00473807 0.0116082 0.00259077
internal_weight=79358 23388 55970 43874 15912 7476 12096 13353 21860 22014 11350 4677 8825 2799 3827 3271 8677 2621 2559 1161 13183 650 1638 52 7880 4255 14134 2003 1109 6498 4852 4570 1012 2218 1228 880 2055 3997 11292 2599 4746 4311 1741 7805 1691 6329 850 7737 1891 626 3134 940 286 694 364 258 341 156 312 259 243 163
internal_count=79358 23388 55970 43874 15912 7476 12096 13353 21860 22014 11350 4677 8825 2799 3827 3271 8677 2621 2559 1161 13183 650 1638 52 7880 4255 14134 2003 1109 6498 4852 4570 1012 2218 1228 880 2055 3997 11292 2599 4746 4311 1741 7805 1691 6329 850 7737 1891 626 3134 940 286 694 364 258 341 156 312 259 243 163
is_linear=0
shrinkage=0.05


Tree=10
num_leaves=61
num_cat=0
split_feature=2 2 2 4 4 4 2 4 1 2 1 4 2 1 4 5 4 4 2 2 1 5 6 1 1 4 4 4 10 5 5 5 2 4 2 4 1 1 2 1 3 2 4 1 4 4 8 7 7 4 4 1 2 7 15 6 3 2 6 6
split_gain=356.482 73.1316 49.4594 25.1438 18.7535 13.48 10.0462 7.56021 6.7244 6.43335 5.02323 4.43858 3.71454 3.3263 2.91659 2.50481 2.30328 2.28625 2.22058 2.04671 2.04319 1.70506 1.67254 1.67185 1.54845 1.50977 1.47121 1.46431 1.34872 1.30702 1.29806 1.24707 1.10259 1.04873 0.999863 0.959971 0.949868 0.931433 0.821277 0.788722 0.661411 0.658994 0.646866 0.621813 0.531815 0.509698 0.507404 0.438289 0.431197 0.413051 0.409595 0.387794 0.350979 0.334929 0.323866 0.27562 0.230648 0.174892 0.122236 0.00428257
threshold=0.31061728447238762 0.18400690873082134 0.50635700453955723 0.25571401596591298 0.38395579107196204 0.3563523201838284 0.10061880623377699 0.41561714199565941 0.44900591232909143 0.679930874475423 0.42523545798436863 0.048271564208460141 0.24096164113015442 0.94838191236966496 0.55249922262789553 0.46783888013868574 0.54225899250268628 0.5050250551596106 0.14273582888056877 0.39614638223783577 0.51814926360693214 0.26729214023154357 0.0083876344734833564 0.78516775420286167 0.67117458195667246 0.52191280498963277 0.5312259506654865 0.23573627957836185 -0.033003323669842974 0.60997208717464335 0.35521840872946636 0.5362352999090082 0.40572818299465768 0.28035960355723116 0.11721575910857154 0.11533349648958764 0.30157146708975141 0.62533499083178301 0.41566598522174375 0.26743579413859492 0.31819069848190379 0.059343826362900427 0.19392605318515235 0.86447933335174298 0.66342203965277025 0.20847062000059227 -0.15118578686645276 63.864024349343964 68.53884324900757 0.3258874007301506 0.58895232525888486 0.9050769626209425 0.25418513943609639 60.649519773941591 3210994.0000000005 0.00082919835116103261 0.21161571999641668 0.53848379568312976 0.0016311477693904087 0.070332889683643637
decision_type=2 2 2 2 2 2 2 2 2 2 2 2 2 2 2 2 2 2 2 2 2 2 2 2 2 2 2 2 2 2 2 2 2 2 2 2 2 2 2 2 2 2 2 2 2 2 2 2 2 2 2 2 2 2 2 2 2 2 2 2
left_child=1 3 5 6 8 10 22 21 12 14 19 -11 27 17 20 26 30 32 39 42 45 49 41 38 52 -17 -9 -3 40 50 56 -19 -7 -14 -23 -24 -20 -32 -12 -8 -13 -1 -2 -22 -31 -4 -30 58 54 -5 -18 -26 -10 -25 -16 -21 -6 -50 -15 -49
right_child=2 4 9 7 16 13 18 15 24 11 23 28 33 47 48 25 29 31 36 55 43 34 35 53 51 -27 -28 -29 46 44 37 -33 -34 -35 -36 -37 -38 -39 -40 -41 -42 -43 -44 -45 -46 -47 -48 59 57 -51 -52 -53 -54 -55 -56 -57 -58 -59 -60 -61
leaf_value=-0.0066633213669050305 0.0010594487964930165 -0.0015450836781622584 0.004792473174351209 -0.00055664517388753461 0.003291044035270644 0.0044631387744146498 -0.0037477908428020612 0.0027492101401334033 0.00087049630217150235 -0.0028913287459036863 0.0038645773622342089 0.0093179979115181298 -1.9345133333073801e-07 0.0069142754948032757 0.011371361759468044 -0.0022437671828571515 0.0053172553330455043 0.0092634204557187801 -0.002720420365582522 0.0021301572978323423 0.0092293250742798635 -0.003164121252299288 -0.0052882210361150069 0.0085728539332250771 0.003749815564401523 0.001889436345997109 0.0071564335891096398 -0.00026173115024523457 0.010068532636926543 0.0016571260797611017 0.0017691175817007904 0.0064809360343390373 0.0066468631041277058 0.001450675143223759 -0.0014596559997551754 -0.0040920775421945015 -0.0011769269936711608 0.0053338336551778838 0.0059966826321972075 -0.0021811643702603356 0.016085435314940801 -0.0052906778068297963 0.0024261120572880821 0.011670211570528777 0.0051012466419521774 0.007700680828599764 0.013689014352767474 0.006724211141785107 0.0041731833884841758 0.0013586310781541731 0.0080659988680213748 0.0072160483034802428 0.0022431167325103313 0.0058430907941597983 0.0138066728127969 0.0041978107220576001 0.0055737840826210368 0.0098856489963877903 0.011465643289996604 0.0088213069352575321
leaf_weight=1484 1363 7283 193 1295 177 1524 9131 692 1092 38 1412 47 5542 27 380 351 237 751 7951 194 804 1345 2700 374 540 591 265 3214 214 209 1578 952 975 1603 2451 4760 1156 209 695 904 689 2439 2465 465 259 1127 256 81 23 358 416 101 838 199 356 1631 415 76 407 54
leaf_count=1484 1363 7283 193 1295 177 1524 9131 692 1092 38 1412 47 5542 27 380 351 237 751 7951 194 804 1345 2700 374 540 591 265 3214 214 209 1578 952 975 1603 2451 4760 1156 209 695 904 689 2439 2465 465 259 1127 256 81 23 358 416 101 838 199 356 1631 415 76 407 54
internal_value=2.1563e-06 -0.00179799 0.00624032 -0.00316134 0.000379289 0.00466471 -0.00379344 -0.000534643 -0.000205646 0.0106603 0.00344935 0.013756 -0.000554047 0.00678524 0.00953047 0.00218029 0.0037579 0.00629337 -0.00309295 0.00260154 0.00868689 -0.00148195 -0.00497059 0.00523416 0.00218239 0.000343309 0.00398102 -0.00115268 0.0142867 0.00563133 0.00287103 0.00771562 0.00531945 0.000324771 -0.00206557 -0.00452632 -0.0025252 0.00219158 0.00457274 -0.00360739 0.0156733 -0.00581276 0.00194121 0.0101362 0.00358064 0.0072832 0.012076 0.0103915 0.0121266 -0.000138249 0.00708567 0.00431415 0.00146993 0.00764536 0.0125732 0.00398204 0.00490641 0.00866351 0.0112105 0.00765851
internal_weight=79358 61586 17772 37873 23713 13104 30525 7348 20213 4668 8333 1244 17642 4771 3424 1899 3500 4202 19142 5653 2589 5449 11383 2680 2571 942 957 10497 1206 1121 2379 1703 2499 7145 3796 7460 9107 1787 2107 10035 736 3923 3828 1269 468 1320 470 569 835 1653 653 641 1930 573 736 1825 592 99 434 135
internal_count=79358 61586 17772 37873 23713 13104 30525 7348 20213 4668 8333 1244 17642 4771 3424 1899 3500 4202 19142 5653 2589 5449 11383 2680 2571 942 957 10497 1206 1121 2379 1703 2499 7145 3796 7460 9107 1787 2107 10035 736 3923 3828 1269 468 1320 470 569 835 1653 653 641 1930 573 736 1825 592 99 434 135
is_linear=0
shrinkage=0.05


Tree=11
num_leaves=63
num_cat=0
split_feature=2 2 2 2 5 1 5 2 1 2 2 1 2 5 1 5 1 5 1 2 5 11 5 2 10 1 2 7 5 5 11 1 11 5 1 10 7 1 5 7 1 16 1 1 2 2 1 3 7 7 5 1 11 11 2 7 16 10 1 7 7 15
split_gain=322.24 64.906 44.943 14.7852 9.99038 9.83698 8.702 4.97574 4.86356 4.53178 4.45912 2.54786 2.36705 4.01156 2.15501 2.08971 1.78136 1.6384 1.55945 1.49832 1.31406 1.29742 1.32029 1.29573 1.16799 1.12886 1.03719 0.812801 0.80908 0.783293 0.753308 0.72488 0.668342 0.606221 0.588392 0.566854 0.542372 0.4424 0.423592 0.390363 0.381634 0.375761 0.374661 0.373375 0.35856 0.35004 0.316773 0.275638 0.26713 0.24969 0.233276 0.227384 0.219383 0.203546 0.20231 0.155313 0.122152 0.0949096 0.0455747 0.0239479 0.011612 0.00569081
threshold=0.26951958885701843 0.42074892654593571 0.14976597995833543 0.57541005434670367 0.27241460572369453 0.59034649425218932 0.25045633473383105 0.091244022721576806 0.80610789636967239 0.20630973951178241 0.34221474807594426 0.61297541628839125 0.679930874475423 0.057713058738327758 0.99196696577372057 0.30441402379828592 0.44900591232909143 0.3000313176334613 0.32450529191069993 0.20884155113700958 0.33618261332586957 0.055200460308380821 0.3211277209901266 0.84042151804965515 -0.052148406097371341 0.18773922999008566 0.05040206970239202 59.454417442255014 0.32601959234394001 0.36784868985393937 0.21078379428765534 0.45569992660981345 0.073554491872410296 0.16471897000827598 0.37439510200325021 -0.0055349020680875707 77.094731391950134 0.71876978951829762 0.1708040925811902 38.737989743136318 0.50019841388841257 1.5000000000000002 0.33999215281942408 0.28097207589617273 0.23466486422942789 0.3560782867876644 0.83300131880406669 0.32821894021345599 44.239140722925434 63.864024349343964 0.17696508231745403 1.0870943481226509 0.23315885166427111 0.26258239364541919 0.10530629346783717 58.158819995617527 1.0000000180025095e-35 -0.015341717396597272 1.1284208820655277 66.866732622261196 76.268810029996146 2618421.3000000003
decision_type=2 2 2 2 2 2 2 2 2 2 2 2 2 2 2 2 2 2 2 2 2 2 2 2 2 2 2 2 2 2 2 2 2 2 2 2 2 2 2 2 2 2 2 2 2 2 2 2 2 2 2 2 2 2 2 2 2 2 2 2 2 2
left_child=2 5 6 8 9 10 7 26 17 18 15 19 28 -14 27 34 44 31 33 29 43 54 53 -15 -19 32 50 45 48 -6 -21 -3 -9 -4 -2 -30 51 -18 -28 -24 -20 -22 -27 -12 -11 -7 56 -17 -5 58 -1 -10 -29 -23 55 -8 -13 -56 -16 -48 -51 -38
right_child=1 3 4 12 11 14 21 25 36 16 20 46 13 23 49 47 37 24 40 30 41 22 39 -25 -26 42 38 52 35 -31 -32 -33 -34 -35 -36 -37 61 -39 -40 -41 -42 -43 -44 -45 -46 -47 59 -49 -50 60 -52 -53 -54 -55 57 -57 -58 -59 -60 -61 -62 -63
leaf_value=-0.0058622719110979996 0.00079829845901011488 0.0045224874412836688 -0.0024449658517239348 0.0099148017536360954 -0.00064630804137817059 0.0051208419238892751 -0.0048065467538710317 -0.003929179249315966 0.0098737070422894504 -0.00091240134894481843 0.0025076675887855319 0.0062595564767150549 -0.0027504689374771448 0.012612402040613705 0.008853770590339911 0.002455427008978123 0.0013017319153296749 0.0084511731089350218 -0.00075118045186896884 0.0010372132657657089 0.0037740487730157446 -0.0021658613292283662 0.0011281678434516068 0.016670028337521865 0.0062477394304090899 -0.0026457700580415698 -0.0046788397726731717 0.0031427659036404989 0.012027442281698671 0.00081392322637408282 0.0028701894769307453 0.0066325781579622102 -0.0031318962224709326 -0.001675070325879046 0.0021179888744253693 0.0094799754537176345 0.0039727095762888591 0.0045144095067594821 -0.0037347762912577098 -0.00063741517887201541 0.0012358562442055811 0.0053929142691644403 -0.0010627361265767576 0.0036548694061650728 -0.00021509334911100358 0.0068858368661050082 0.0086122986736396952 0.0035995528438391971 0.0073651888930111936 0.0060294147998294131 -0.0045069114187975753 0.011900845767694724 0.0052983854534823498 0.0017277958853678271 -0.0037980499239160855 -0.002601877000316429 0.003479713039549936 -0.0015523354636712209 0.010788838579395135 0.0054147972526221444 0.0081045535151846714 0.0064132698681205512
leaf_weight=2155 4137 1376 5377 209 2178 781 321 5194 652 4003 1767 56 38 925 230 1830 776 1018 1235 2918 631 2020 382 281 1625 2499 5024 531 580 1586 700 613 5635 5029 1071 449 32 126 1681 1685 298 986 455 1268 3460 514 53 793 317 97 439 268 169 32 77 128 259 161 122 28 49 29
leaf_count=2155 4137 1376 5377 209 2178 781 321 5194 652 4003 1767 56 38 925 230 1830 776 1018 1235 2918 631 2020 382 281 1625 2499 5024 531 580 1586 700 613 5635 5029 1071 449 32 126 1681 1685 298 986 455 1268 3460 514 53 793 317 97 439 268 169 32 77 128 259 161 122 28 49 29
internal_value=2.28675e-06 0.00493107 -0.00205725 0.00844571 -0.000645047 0.00295614 -0.00347902 -0.00388219 0.00696078 -0.00122883 0.00238244 0.000878215 0.0114182 0.0130705 0.00582468 0.00165255 -0.000335634 0.00627788 -0.00185415 0.000667482 0.00360941 -0.00154126 -0.00120335 0.013575 0.0071012 -0.00327753 -0.00477744 0.00507935 0.0100856 -2.96438e-05 0.00139393 0.00517833 -0.00351509 -0.00207357 0.001071 0.010931 0.0101704 0.00176055 -0.00444349 -0.000308314 -0.000361107 0.004767 -0.00240407 0.00298965 -0.000589857 0.00583002 0.0047824 0.00280447 0.00840463 0.00878429 -0.00563665 0.0104819 0.00367714 -0.00210189 -0.00355534 -0.00419633 0.00400798 -0.00231266 0.00956728 0.00764748 0.00681027 0.00529835
internal_weight=79358 23388 55970 8412 28082 14976 27888 23082 5613 20304 12483 7778 2799 1244 2493 7831 8365 4632 11939 7382 4652 4806 4119 1206 2643 13783 9299 1995 1555 3764 3618 1989 10829 10406 5208 1029 981 902 6705 2067 1533 1617 2954 3035 7463 1295 396 2623 526 498 2594 920 700 2052 687 449 315 238 352 81 146 61
internal_count=79358 23388 55970 8412 28082 14976 27888 23082 5613 20304 12483 7778 2799 1244 2493 7831 8365 4632 11939 7382 4652 4806 4119 1206 2643 13783 9299 1995 1555 3764 3618 1989 10829 10406 5208 1029 981 902 6705 2067 1533 1617 2954 3035 7463 1295 396 2623 526 498 2594 920 700 2052 687 449 315 238 352 81 146 61
is_linear=0
shrinkage=0.05


Tree=12
num_leaves=62
num_cat=0
split_feature=2 2 2 2 5 5 2 2 2 5 6 5 5 6 2 6 5 15 6 6 6 10 10 5 6 11 6 14 6 10 15 5 14 5 6 15 11 5 6 10 3 6 14 2 2 6 2 2 14 5 2 5 2 14 11 10 2 14 6 6 15
split_gain=291.023 52.6544 46.2145 9.35092 9.05544 8.94833 7.65343 5.2297 5.05946 2.88311 2.87622 2.86474 2.68814 2.52738 1.9344 1.71977 1.67066 1.29025 1.28331 1.24737 1.24327 1.20376 1.16509 1.15378 1.12902 1.09072 1.04751 1.02906 1.00724 0.880302 0.840636 0.824851 0.788887 0.728946 0.714545 0.706133 0.693658 0.664597 0.640026 0.535736 0.496456 0.488681 0.633779 0.469747 0.466586 0.439601 0.430523 0.428078 0.418287 0.391862 0.349437 0.347552 0.305591 0.295845 0.278346 0.269145 0.257183 0.240188 0.235539 0.211287 0.144369
threshold=0.28161336188721103 0.47295005485574976 0.15777296755336545 0.36282636975362087 0.3069718607467577 0.24267290900916963 0.62909256029418825 0.091244022721576806 0.21281759289015101 0.31649640219940572 0.015964449950386667 0.037254103624481637 0.38945450883160843 0.019081980529631764 0.84042151804965515 0.011989790554240206 0.31649640219940572 2436681.6000000006 0.033370118648256439 0.013534133052930759 0.0030240725753858792 -0.03658213792426724 -0.013635725905964886 0.31883291993756263 0.0057259849110824273 0.055864820957573495 0.0061266309960937701 2095820.0000000002 0.053439826815790854 -1.2028601896905249 4415302.3000000017 0.20803891673989819 2325800.0000000005 0.1952698406301622 0.048825036457626432 706961.00000000012 0.082719796377984572 0.24421592414907015 0.074179946792152993 -0.057208997314116716 0.17161763141645869 0.14320035117874683 5632247.5000000009 0.54990496953045287 0.21281759289015101 0.019851002831970329 0.31061728447238762 0.034361073417647992 2028767.5000000002 0.18984511820596869 0.12117613604120435 0.43709882104251724 0.40572818299465768 5793759.0000000009 0.34413785566689131 0.0092534540251511897 0.13257804350691552 5994291.0000000009 0.00057626741389195781 0.052472581797852157 29442150.000000004
decision_type=2 2 2 2 2 2 2 2 2 2 2 2 2 2 2 2 2 2 2 2 2 2 2 2 2 2 2 2 2 2 2 2 2 2 2 2 2 2 2 2 2 2 2 2 2 2 2 2 2 2 2 2 2 2 2 2 2 2 2 2 2
left_child=2 3 5 9 8 7 16 15 19 28 27 29 26 30 21 47 41 34 48 53 56 -13 35 59 60 -25 57 50 46 -8 44 -21 -26 -20 -15 -18 -22 -28 -19 45 -17 42 -3 -24 -6 -14 -2 -1 -10 -30 -7 -32 -41 -4 -43 -16 -9 -5 -29 -12 -11
right_child=1 6 4 12 13 10 11 20 18 24 23 14 39 17 55 40 22 38 33 31 36 -23 43 25 32 -27 37 58 49 -31 51 -33 -34 -35 -36 -37 -38 -39 -40 52 -42 54 -44 -45 -46 -47 -48 -49 -50 -51 -52 -53 -54 -55 -56 -57 -58 -59 -60 -61 -62
leaf_value=-0.0066851534190898012 0.00051466705838038712 0.0050339627654554572 -0.0024594171558121125 0.0019951551615722957 -0.0022087308283509502 -0.0052580555339946473 -0.0082784325764937838 -0.0042948211374599253 -0.0010600504413977249 0.0012360351029843664 -0.0022671905269252561 0.012485589272679547 0.0055841124859817761 7.4589873126707979e-05 0.016992545884963944 -0.0042323592391502662 0.0073554734388347146 0.0028328652549336327 1.6036120671695943e-05 -0.0014974836345681213 -0.0031522525245387964 0.0095636996601589086 0.0065929077487569543 -0.0030971280794089536 0.0032891662198928765 0.00051133469701349597 0.0038325984809256574 -0.0042531220887205567 0.0016973645727055226 0.0058326627726654062 0.00037043964281185601 -0.00040491231281042806 0.0050371314533788139 0.0012449659142744444 0.0019831938377577688 0.010303924352987539 -0.002385685098055351 0.0052181012671663413 0.005702312277790042 0.0047888287340102078 -0.0029983066099168931 0.0071664007865664047 0.0078959935908783693 0.0087247523543341979 -0.000116869063827706 0.0083163261065356507 0.0016641196975164295 -0.0051616605254997819 -0.00010083577045800173 0.0030217916967908345 -0.0031031965203377598 0.002503765935302076 0.0064591518395749172 -0.0014766230494103383 0.010578606190852994 0.012653091214364393 -0.0033141619721479285 0.0036960465859078918 -0.0016213393143388296 -0.0011891275009282831 0.0052940866601420564
leaf_weight=597 1484 774 3123 555 466 509 21 1971 2221 502 709 867 238 624 202 4607 290 659 2556 5313 6754 676 745 235 1684 1852 1658 99 952 21 606 2582 1094 2299 2389 988 5436 1968 287 542 1044 426 277 465 634 529 1852 2945 2353 1457 333 283 701 1063 85 79 1147 361 757 1389 23
leaf_count=597 1484 774 3123 555 466 509 21 1971 2221 502 709 867 238 624 202 4607 290 659 2556 5313 6754 676 745 235 1684 1852 1658 99 952 21 606 2582 1094 2299 2389 988 5436 1968 287 542 1044 426 277 465 634 529 1852 2945 2353 1457 333 283 701 1063 85 79 1147 361 757 1389 23
internal_value=2.35418e-06 0.00496683 -0.00184429 0.00344272 -0.000357354 -0.00318782 0.00898366 -0.00360842 -0.000834979 0.00239949 -0.00143497 0.0116417 0.00488203 0.00136891 0.0119391 -0.00455242 0.00775519 0.00209935 3.25161e-05 -0.0015124 -0.00304092 0.0112157 0.00856973 -0.000728861 0.00357799 0.000101332 0.00420317 -0.0031709 0.00172055 -0.00113505 -8.27954e-05 -0.0011409 0.00398089 0.00059914 0.00158973 0.00964505 -0.00281104 0.00458719 0.00371379 0.0064107 -0.00400583 0.00644992 0.00579982 0.00742283 -0.0010088 0.00748341 0.0011546 -0.00542167 -0.000567825 0.00250139 -0.00441646 0.00105722 0.00573928 -0.00221145 0.00776331 0.0158395 -0.00393685 0.00267424 -0.00193616 -0.00155674 0.00143305
internal_weight=79358 21516 57842 15600 27458 30384 5916 24501 21510 9048 5883 1866 6552 5948 1824 9193 4050 3959 9429 12081 15308 1543 2488 4185 3303 2087 4542 1698 5745 42 1989 7895 2778 4855 3013 1278 12190 3626 946 2010 5651 1562 1051 1210 1100 767 3336 3542 4574 2409 842 889 1243 4186 511 281 3118 916 856 2098 525
internal_count=79358 21516 57842 15600 27458 30384 5916 24501 21510 9048 5883 1866 6552 5948 1824 9193 4050 3959 9429 12081 15308 1543 2488 4185 3303 2087 4542 1698 5745 42 1989 7895 2778 4855 3013 1278 12190 3626 946 2010 5651 1562 1051 1210 1100 767 3336 3542 4574 2409 842 889 1243 4186 511 281 3118 916 856 2098 525
is_linear=0
shrinkage=0.05


Tree=13
num_leaves=63
num_cat=0
split_feature=2 2 4 2 2 4 4 2 4 2 2 4 5 5 2 4 5 4 4 6 7 4 4 10 5 10 4 2 7 6 2 6 6 6 4 2 4 6 4 6 4 2 6 2 6 2 6 4 6 2 16 2 7 4 5 2 5 2 5 9 15 13
split_gain=263.023 53.0847 39.4987 24.7818 12.0966 11.4701 7.8586 4.28754 4.18008 3.71241 3.6767 3.27472 3.25911 2.30411 1.95653 1.88769 2.32238 1.53933 1.37103 1.29723 1.29541 1.26864 1.2646 1.2317 1.20202 1.34372 1.09425 1.02544 0.943374 0.958638 0.912821 0.872309 0.842328 0.837574 0.813672 0.786965 0.765867 0.689815 0.644573 0.599552 0.589179 0.574968 0.438703 0.429513 0.420989 0.413343 0.41069 0.409382 0.348523 0.338211 0.335729 0.329568 0.319041 0.293903 0.249802 0.232403 0.221931 0.202911 0.200102 0.197927 0.18677 0.158712
threshold=0.26951958885701843 0.42074892654593571 0.29666341344513963 0.14473413434845778 0.57541005434670367 0.46066983688256252 0.44261374844692153 0.20489030504989766 0.41561714199565941 0.082168946476157065 0.33304736842761434 0.39737699452350378 0.47462148419913847 0.30929895068814617 0.16407821809790604 0.6447889947936255 0.71414180057760279 0.15123804201960897 0.20727116062047177 0.011989790554240206 75.562597943380283 0.5312259506654865 0.23728738769225358 -0.0055349020680875707 0.037254103624481637 -0.63377947860541861 0.17256463015653864 0.76253780604356936 63.007235423049607 0.0088580047535563068 0.52703625833146794 0.054405634549146611 0.0018186730148573285 0.001268018548555575 0.35945816223953325 0.84042151804965515 0.21771517452230113 0.052472581797852157 0.18424549787250119 0.021135548105044148 0.54225899250268628 0.21957918129843793 0.009347960969977644 0.1792563982865831 0.0028613293145497275 0.20884155113700958 0.0043100248152997947 0.66342203965277025 0.39015183793259889 0.23466486422942789 1.5000000000000002 0.030198920553398224 55.761849135116471 0.10721533233127968 0.37863305366707961 0.38684772133983031 0.47462148419913847 0.18037510943381949 0.050565810558314377 0.2927471824107673 26186040.000000004 10.885000000000003
decision_type=2 2 2 2 2 2 2 2 2 2 2 2 2 2 2 2 2 2 2 2 2 2 2 2 2 2 2 2 2 2 2 2 2 2 2 2 2 2 2 2 2 2 2 2 2 2 2 2 2 2 2 2 2 2 2 2 2 2 2 2 2 2
left_child=2 5 3 9 8 10 13 26 30 19 18 24 21 34 44 41 -17 53 58 51 32 54 55 35 25 -6 48 -26 29 60 33 -24 -10 -3 43 -13 -21 -20 49 -19 -31 -14 -40 -4 -15 -16 -28 -25 -5 -9 -32 -1 -23 -11 -8 -12 -30 -36 -2 -22 -7 -58
right_child=1 4 6 7 11 28 12 38 20 17 22 23 15 14 45 16 -18 39 37 36 59 52 31 47 27 -27 46 -29 56 40 50 -33 -34 -35 57 -37 -38 -39 42 -41 -42 -43 -44 -45 -46 -47 -48 -49 -50 -51 -52 -53 -54 -55 -56 -57 61 -59 -60 -61 -62 -63
leaf_value=-0.006551820999876808 0.003786763089116324 0.0023672847503195802 0 -0.0023971999209838803 -0.0059665406019156503 0.002647621637695417 0.0046086594110845277 -0.0012780849383669372 0.0036504753829146234 -0.0039790130729148755 0.0018011450690537348 0.012264057328930151 -0.00019578391610503536 -0.0045538933970466523 -0.00047505679168654874 0.0073869372964859466 0.00062493721348786258 -0.0032236809846296413 0.0013044224984058508 -0.0042397095984871725 0.00063279824918540924 0.007995571688251121 0.0029120067865836888 0.0090062878608466006 0.0079375766471341726 0.010400532677414873 -0.0022603604335020397 0.012339701018126851 0.0054713205619493568 0.0056400224534805601 0.0053541207705499029 0.0045687373919670671 0.008737597906068097 0.0051603180905680345 0.0020222507573463265 0.016555385026377399 -0.0023935513908107586 0.0025777494433996784 -0.00084732810006570491 -0.0022797012153518495 0.007726201852502286 0.002150110379922951 0.00023215918568412119 0.0016624129375134916 -0.0016651203528611391 0.00079528158130482524 -0.001185872226502219 0.012038076376622903 -0.0012725786138910473 -0.00040461111643247708 0.0077603877186011557 -0.0050709717638175687 0.0053661017180497428 -0.0033569777603456859 0.002867070391915433 0.0029379072640086136 0.0015773665731748619 0.0038784240282396147 0.00037201269492131463 0.0047510255848198235 0.0072229103369967828 0.003986686246279356
leaf_weight=490 43 310 851 6588 30 187 421 2548 91 3688 1639 870 825 139 1104 267 245 2753 2455 4061 45 289 1783 436 947 20 1093 164 206 597 259 1492 1762 2591 342 142 673 1918 1292 4576 938 379 3451 715 1613 1513 5166 190 796 2000 451 2590 241 4499 470 657 105 292 2662 104 27 267
leaf_count=490 43 310 851 6588 30 187 421 2548 91 3688 1639 870 825 139 1104 267 245 2753 2455 4061 45 289 1783 436 947 20 1093 164 206 597 259 1492 1762 2591 342 142 673 1918 1292 4576 938 379 3451 715 1613 1513 5166 190 796 2000 451 2590 241 4499 470 657 105 292 2662 104 27 267
internal_value=2.35772e-06 0.00445531 -0.00185834 -0.00246675 0.00763384 0.0026692 0.00104113 -0.00129916 0.00629048 -0.0036142 0.00207477 0.0103228 0.00309953 5.70644e-05 -0.00060662 0.00162712 0.00416849 -0.00316506 0.00131694 -0.0045049 0.0081294 0.0048717 0.00303628 0.0117751 0.00826103 0.000557812 -0.00186343 0.0086024 0.00589597 0.0064815 0.00526759 0.00366946 0.00849257 0.0048645 0.00137703 0.0128869 -0.00397887 0.00186451 -0.000469936 -0.00263536 0.00692229 0.000539688 -6.09574e-05 0.000759945 -0.00189963 0.000257494 -0.00137464 0.00995219 -0.00227683 -0.000895244 0.00689841 -0.00531023 0.00682168 -0.00363825 0.00369983 0.00212974 0.00410742 0.00288978 0.000429522 0.00355311 0.00327904 0.00332609
internal_weight=79358 23388 55970 46264 8412 14976 9706 22934 5613 23330 12649 2799 3137 6569 4369 1716 512 15516 7078 7814 2002 1421 5571 1638 1161 50 13643 1111 2327 1749 3611 3275 1853 2901 2200 1012 4734 4373 9291 7329 1535 1204 4743 1566 1752 2617 6259 626 7384 4548 710 3080 530 8187 891 2296 578 634 2705 149 214 372
internal_count=79358 23388 55970 46264 8412 14976 9706 22934 5613 23330 12649 2799 3137 6569 4369 1716 512 15516 7078 7814 2002 1421 5571 1638 1161 50 13643 1111 2327 1749 3611 3275 1853 2901 2200 1012 4734 4373 9291 7329 1535 1204 4743 1566 1752 2617 6259 626 7384 4548 710 3080 530 8187 891 2296 578 634 2705 149 214 372
is_linear=0
shrinkage=0.05


Tree=14
num_leaves=63
num_cat=0
split_feature=4 3 3 4 3 4 3 4 11 4 11 4 11 4 11 10 5 5 10 10 10 6 15 6 11 5 3 11 4 5 3 10 4 11 4 3 6 3 6 11 6 15 5 6 3 6 10 14 4 11 3 6 11 4 4 4 6 3 6 6 11 5
split_gain=170.348 45.9492 30.7176 12.1309 10.3991 9.74452 8.3802 4.01974 3.60689 3.53312 2.7425 2.58422 2.57209 2.14092 2.12988 2.08989 2.01216 1.94245 1.56726 1.22453 1.18813 1.10956 1.0793 1.07102 1.05437 1.01691 0.961723 0.951956 0.945895 0.919257 0.899815 0.860989 0.915307 0.82444 0.729157 0.683893 0.65011 0.647036 0.645455 0.603498 0.586728 0.552933 0.548403 0.543059 0.501695 0.489555 0.475204 0.471886 0.468916 0.46634 0.443188 0.420057 0.379596 0.370694 0.363164 0.353945 0.330034 0.309355 0.265834 0.243414 0.234557 0.045677
threshold=0.30570639392590526 0.21997190064851255 0.31583551321613229 0.52191280498963277 0.14308234743463707 0.43718089777042984 0.33838328467835893 0.17795243392817936 0.28517502725810528 0.20103889109728942 0.097770664777719771 0.14735845929155655 0.069652164923216228 0.58895232525888486 0.26659226622796217 -0.082308027075434276 0.63137845048574326 0.43148031244147128 -0.021527619983277135 -0.037791353766420031 -0.049024916105399517 0.059555856993688601 294756.00000000006 0.01495512529255808 0.14077918419914598 0.27958272566076348 0.21584482693507609 0.54487777359372347 0.1120006644173694 0.34894233557120624 0.087445246163494819 -0.0055349020680875707 1.0000000180025095e-35 0.17907099179828545 0.76739416771698876 0.54852953348035383 0.0081339231742798227 0.43628975628729882 0.010602914444757189 0.12891251082327257 0.23619371376543932 10654319.500000002 0.38561094630807025 0.034072339315861726 0.41657599611913426 49.036526426602528 -0.15031583554430331 3879835.5000000005 0.23285783108892427 0.075777174073474188 0.11228243745000642 5.1236806607008072 0.24852192692560857 0.22868552515121585 0.346408825165964 0.3563523201838284 0.0033717438086319305 0.10680823645321273 0.34217291218249718 0.024951373369485191 0.039511941156059389 0.3000313176334613
decision_type=2 2 2 2 2 2 2 2 2 2 2 2 2 2 2 2 2 2 2 2 2 2 2 2 2 2 2 2 2 2 2 2 2 2 2 2 2 2 2 2 2 2 2 2 2 2 2 2 2 2 2 2 2 2 2 2 2 2 2 2 2 2
left_child=1 4 5 8 11 10 9 28 19 24 29 30 42 17 20 22 -15 -14 37 44 39 47 58 -24 45 54 -27 34 51 55 59 32 -16 40 -17 -33 -21 -10 57 -8 -11 -20 61 -22 -4 -3 -35 -9 -40 -30 -31 -6 -26 -23 -12 -2 -32 -13 -5 -1 -44 -7
right_child=2 6 3 15 7 12 14 21 18 33 25 38 13 16 31 27 -18 -19 41 36 43 53 23 -25 52 26 -28 -29 49 50 56 35 -34 46 -36 -37 -38 -39 48 -41 -42 -43 60 -45 -46 -47 -48 -49 -50 -51 -52 -53 -54 -55 -56 -57 -58 -59 -60 -61 -62 -63
leaf_value=-0.00529010917775748 0.00011829398634677779 -0.0012747183133158639 0.0047009926945357225 -3.5553331571546461e-05 -0.0030252772276871207 0.0018270273237223072 0.00074879232887805919 -0.0016592751738476767 0.0072286945226144109 0.0001683079441334771 0.0024078321876884251 -0.0044276375667580649 0.0052022517549690887 0.007529841400355214 -0.0015026430458557314 0.0070385681415604086 0.0039895425449933573 0.0025574541872802115 0.0050174120029843183 0.0017513376269082904 0.00042191004017829873 -0.00075483400722167705 0.0078009914797426104 0.011935412295734298 -0.00027642940658340574 0.00048727206892193925 0.0020585485729063386 0.013214663459753887 -0.0025110003478840581 -0.0040191210714907053 -0.004163181710032284 0.0022999713687380688 0.0062373678403491043 0.0032844163733401089 0.00999846526748863 0.0063151165291682647 0.0038165498113070791 0.010634922924347813 -0.0025744900439588596 0.0037106391681044626 0.0015609660431744057 0.00822870361453335 -0.0055542891961106629 0.0018547209422935637 0.0069649900587021628 0.003885197797613016 0.0012506120378191297 -0.00065121143917499808 -0.0014152084891204016 -0.0017193924934413578 -0.00087969361220982523 0 0.0013200632496889312 0.00022023416065865034 0.0043337544778620377 0.0019563672545586607 -0.0034028673371530268 -0.0029374535380514597 0.0064563958380491311 -0.0041695129194109651 -0.00065945174494117962 0.0049864082280319279
leaf_weight=1190 760 4808 1001 21 3776 27 222 4011 309 4277 577 561 1151 864 40 1287 774 1791 750 490 1365 1944 213 834 2984 1492 2859 82 2861 128 2103 653 481 348 269 129 1937 305 3675 848 921 175 27 1304 351 45 1774 1663 1179 5638 968 119 424 1942 460 404 5379 1075 48 990 235 40
leaf_count=1190 760 4808 1001 21 3776 27 222 4011 309 4277 577 561 1151 864 40 1287 774 1791 750 490 1365 1944 213 834 2984 1492 2859 82 2861 128 2103 653 481 348 269 129 1937 305 3675 848 921 175 27 1304 351 45 1774 1663 1179 5638 968 119 424 1942 460 404 5379 1075 48 990 235 40
internal_value=2.40681e-06 -0.00137049 0.00391104 0.00631774 -0.00239936 0.00236316 0.000530393 -0.0016903 0.00491915 -4.26894e-05 0.00124604 -0.00336266 0.00410196 0.00440868 0.002302 0.00901384 0.00586346 0.00359529 0.00696527 0.00408292 0.00169226 -0.000918927 0.0107037 0.0111073 -0.000751696 0.00185926 0.00152113 0.00785362 -0.00228476 -0.000213861 -0.00388226 0.00404521 0.00563181 0.000756772 0.00755958 0.00297592 0.00340255 0.00894338 -0.00258786 0.00310207 0.000416279 0.00563858 -0.000153185 0.00112425 0.00529717 -0.00122505 0.00158789 -0.00136487 -0.00229429 -0.00198672 -0.00125423 -0.00293312 -7.60091e-05 -0.000266333 0.00327032 0.000761674 -0.00361777 -0.0034539 0.00443687 -0.00478565 -0.00120209 0.00383235
internal_weight=79358 58729 20629 8072 38106 12557 20623 21954 5318 15581 7648 16152 4909 4580 5042 2754 1638 2942 1539 3779 3739 9560 1116 1047 8261 5388 4351 1638 12394 2260 9662 1303 521 7320 1556 782 2427 614 6490 1070 5198 925 329 2669 1352 4853 2122 5674 4854 8499 1096 3895 3408 3886 1037 1164 7482 1636 69 2180 262 67
internal_count=79358 58729 20629 8072 38106 12557 20623 21954 5318 15581 7648 16152 4909 4580 5042 2754 1638 2942 1539 3779 3739 9560 1116 1047 8261 5388 4351 1638 12394 2260 9662 1303 521 7320 1556 782 2427 614 6490 1070 5198 925 329 2669 1352 4853 2122 5674 4854 8499 1096 3895 3408 3886 1037 1164 7482 1636 69 2180 262 67
is_linear=0
shrinkage=0.05


Tree=15
num_leaves=61
num_cat=0
split_feature=2 2 2 4 4 4 2 1 1 1 4 2 5 2 4 4 5 1 4 4 4 5 2 2 7 5 4 2 1 1 1 15 4 5 1 5 5 4 4 4 7 7 10 7 1 16 10 4 4 4 5 7 2 15 4 7 7 1 0 15
split_gain=222.522 47.7977 29.4277 15.8476 12.2504 8.33916 7.39733 5.54394 5.09183 4.39853 2.93351 2.74288 2.26169 2.20962 2.17269 2.14296 2.01883 1.7286 1.71366 1.54392 1.26614 1.15827 1.15678 1.10545 1.09298 1.06589 1.00009 0.974589 0.950876 0.924298 0.897514 0.845886 0.837034 0.813294 0.809355 0.774182 0.677581 0.670161 0.644914 0.613354 0.605449 0.60467 0.569474 0.538523 0.528398 0.522493 0.522129 0.512486 0.412826 0.392299 0.341682 0.304152 0.296011 0.273118 0.246046 0.239837 0.142808 0.138413 0.12097 0.125292
threshold=0.31591342531182753 0.18400690873082134 0.50635700453955723 0.32340401863095797 0.39290485672938197 0.46066983688256252 0.11192273374502017 0.50877188447157984 0.61297541628839125 0.86447933335174298 0.49683204347046517 0.24927033133740026 0.56027151920995111 0.39614638223783577 0.52191280498963277 1.0000000180025095e-35 0.37153744588946985 0.28631995458262105 0.2034761466666182 0.57617470411919014 0.22051623184998406 0.3935583185946781 0.84042151804965515 0.061615320480193338 70.636714520827056 0.63137845048574326 0.22461658563200401 0.62909256029418825 0.7676844408548934 0.94838191236966496 0.99196696577372057 717008.00000000012 0.40574691727557272 0.51575730252730667 0.7676844408548934 0.23253497403309017 0.46101046843885507 0.20103889109728942 0.28035960355723116 0.61473461595243994 69.504938378875337 77.094731391950134 -0.019593547418322855 23.970227542383771 0.45569992660981345 1.5000000000000002 -0.060933676819878463 0.82527278322089115 0.38395579107196204 0.44261374844692153 0.65417420482303312 49.989577970393334 0.76253780604356936 14971.900000000003 0.68068152942479176 65.188954092711072 31.401464364944001 0.99196696577372057 45.500000000000007 913529.00000000012
decision_type=2 2 2 2 2 2 2 2 2 2 2 2 2 2 2 2 2 2 2 2 2 2 2 2 2 2 2 2 2 2 2 2 2 2 2 2 2 2 2 2 2 2 2 2 2 2 2 2 2 2 2 2 2 2 2 2 2 2 2 2
left_child=1 3 5 6 7 8 18 11 13 14 16 26 39 37 27 31 32 20 23 21 -8 49 41 -1 29 54 -3 45 53 33 40 -11 -5 -7 -23 -20 51 -2 -13 -12 -10 -17 -15 -24 -19 -4 -38 -27 -18 -6 -14 -16 -29 -9 -21 -32 -31 -30 59 -26
right_child=2 4 9 10 19 24 17 28 30 15 12 38 50 42 36 22 48 44 35 25 -22 34 43 -25 58 47 -28 52 57 56 55 -33 -34 -35 -36 -37 46 -39 -40 -41 -42 -43 -44 -45 -46 -47 -48 -49 -50 -51 -52 -53 -54 -55 -56 -57 -58 -59 -60 -61
leaf_value=-0.0046701834074881453 0.0010793478272570554 -0.0011692038152167742 0.0047968774580493759 0.00032262452141894012 0.0028872541004592235 0.0074573554912168594 -0.0025950045282093826 0.0064251844286370811 0.0053932609670541108 -0.0068748825140621354 0.0035683974682479483 0.00015260133814106976 0.0013650412685833439 0.0044342718517200973 0.01405536285159178 0.01084076207455317 -0.0027171251634200057 -0.0012348338017594226 -0.0015121515659365561 0.0056259017899567484 -0.0015260557631223369 0.0014195432146676449 0.0072935360083759481 -0.0036197210115066917 0.0020304437683114972 0.0020681071679179751 -0.00022680189663410781 0.0076663260282298501 0.0042977422949853853 0.0069133001929264012 0.0086741987241816428 0.006835117301882499 0.0031653717394920962 0.005306250574820693 0.0061477056354495522 -0.0032374252116066505 0.010379627366699146 0.0023292783144685152 0.0012869781689742133 0.0070089920581524363 0.0026250735249807016 0.0058465042563526567 0.0030344415814341067 0.016047588990326472 0.00079916500262559365 0.0066655079480112071 0.0074358535046258603 0.0068339704177342369 -0.0009690381073546617 0.005135028819907711 -0.0014565278911118824 0.0092162057097385907 0.010474111798733889 0.0018194536117863876 0.0082698700079261982 0.0056196580191406062 0.0098495427702136092 0.007147886085634431 0 0.0044784915449599793
leaf_weight=3619 1581 7680 630 1142 417 849 13036 33 1231 22 422 5186 214 1332 119 1083 561 1898 1113 386 3558 1581 25 8673 83 339 4468 538 279 80 251 21 336 1009 96 1624 311 3475 1657 198 248 73 1724 161 380 1103 371 69 886 402 213 69 142 1543 139 114 260 62 20 223
leaf_count=3619 1581 7680 630 1142 417 849 13036 33 1231 22 422 5186 214 1332 119 1083 561 1898 1113 386 3558 1581 25 8673 83 339 4468 538 279 80 251 21 336 1009 96 1624 311 3475 1657 198 248 73 1724 161 380 1103 371 69 886 402 213 69 142 1543 139 114 260 62 20 223
internal_value=2.41667e-06 -0.00138761 0.00504526 -0.00249859 0.000341128 0.00377723 -0.0028487 -0.00011299 0.00312491 0.00843274 0.00048828 -0.00037194 0.0027586 0.00258405 0.00742596 0.0108085 -0.000323333 -0.00218872 -0.0036769 0.00311075 -0.00236621 0.00245628 0.0111604 -0.00392976 0.00634612 0.00485176 -0.00082305 0.00664064 0.00244858 0.00675024 0.00549881 -6.24936e-05 0.000973962 0.00629536 0.00169669 -0.00253848 0.00958824 0.00193971 0.000428164 0.00468474 0.00493455 0.010535 0.00364746 0.014943 -0.000893141 0.00599224 0.0087988 0.00290106 -0.00165163 0.00400157 -3.08717e-05 0.0123639 0.00827452 0.00192308 0.00634982 0.0077518 0.00919562 0.00484996 0.00359382 0.00383954
internal_weight=79358 62210 17148 37873 24337 12480 33901 20908 9956 4668 3972 18991 1047 8112 3283 1385 2925 18872 15029 3429 16594 2496 1342 12292 2524 933 12148 2413 1917 2198 1844 43 1478 1858 1677 2737 870 5056 6843 620 1479 1156 3056 186 2278 1733 682 408 1447 819 427 188 680 1576 525 365 340 341 326 306
internal_count=79358 62210 17148 37873 24337 12480 33901 20908 9956 4668 3972 18991 1047 8112 3283 1385 2925 18872 15029 3429 16594 2496 1342 12292 2524 933 12148 2413 1917 2198 1844 43 1478 1858 1677 2737 870 5056 6843 620 1479 1156 3056 186 2278 1733 682 408 1447 819 427 188 680 1576 525 365 340 341 326 306
is_linear=0
shrinkage=0.05


Tree=16
num_leaves=63
num_cat=0
split_feature=2 2 4 2 2 4 4 1 1 1 2 5 2 4 4 5 4 5 4 2 2 1 1 1 10 5 10 1 1 5 4 2 4 16 4 1 2 1 1 5 4 4 2 1 4 4 14 5 1 4 4 4 1 1 2 1 15 1 2 1 8 4
split_gain=200.976 41.4931 28.0844 15.9688 9.24758 8.94386 8.31155 4.87743 3.69262 2.81897 2.75308 2.60544 2.47742 2.42639 2.10655 1.90972 1.76782 1.95063 1.72121 1.64313 1.60973 1.54116 1.27081 1.05209 0.966503 0.926831 1.1473 1.0051 0.895809 0.930674 0.827538 0.826227 0.757684 0.750464 0.701208 0.697535 0.67163 0.609804 0.605523 0.590162 0.564006 0.522551 0.429038 0.417574 0.416254 0.411869 0.373253 0.353886 0.349321 0.327859 0.302922 0.290374 0.240756 0.235703 0.211429 0.166282 0.159849 0.150715 0.140629 0.138565 0.119466 0.0974342
threshold=0.2676252166242426 0.42074892654593571 0.24457870007244567 0.14273582888056877 0.57541005434670367 0.41561714199565941 0.46066983688256252 0.43127811357107321 0.80610789636967239 0.32072935285379872 0.19343946393329645 0.47462148419913847 0.07507187831200636 0.39737699452350378 0.36591008883150317 0.26729214023154357 0.6447889947936255 0.71414180057760279 0.48901044708397651 0.34221474807594426 0.19214365504806391 0.7359494847083351 0.65567759550079352 0.18773922999008566 -0.0055349020680875707 0.037254103624481637 -0.63377947860541861 0.99196696577372057 0.7676844408548934 0.51575730252730667 0.6447889947936255 0.13359641879420181 0.18116290553687592 1.5000000000000002 0.57617470411919014 0.57953056429556027 0.679930874475423 0.45569992660981345 0.45569992660981345 0.25887987356886272 0.10721533233127968 0.52191280498963277 0.3560782867876644 0.99196696577372057 0.10476603850280854 0.3013226745185098 24785192.000000004 0.37863305366707961 0.40855767907193924 0.14089340512255552 0.58895232525888486 0.14923118851525138 0.14952551240859763 1.0870943481226509 0.19097205563024119 0.70316783359926649 151927.00000000003 0.1013054354878196 0.51657226005549517 0.83300131880406669 -1.2610857630290313 0.51352049657773868
decision_type=2 2 2 2 2 2 2 2 2 2 2 2 2 2 2 2 2 2 2 2 2 2 2 2 2 2 2 2 2 2 2 2 2 2 2 2 2 2 2 2 2 2 2 2 2 2 2 2 2 2 2 2 2 2 2 2 2 2 2 2 2 2
left_child=2 6 3 12 8 10 7 19 14 20 15 18 44 25 38 45 37 -18 47 32 49 42 39 40 36 26 -6 -27 29 41 -31 -17 -2 -21 -16 54 -15 -13 -3 -12 -14 -8 -9 -23 57 -4 -26 -7 -25 -5 -20 -22 -46 58 -11 -37 -30 -1 -10 -24 -55 -58
right_child=1 4 5 9 13 11 28 21 53 35 22 16 23 24 34 31 17 -19 50 33 51 43 59 48 46 27 -28 -29 56 30 -32 -33 -34 -35 -36 55 -38 -39 -40 -41 -42 -43 -44 -45 52 -47 -48 -49 -50 -51 -52 -53 -54 60 -56 -57 61 -59 -60 -61 -62 -63
leaf_value=-0.0048561961754453823 -0.00013825786213261113 0.0034625898887579339 -0.00038058567118612655 -0.0023750454823399025 -0.0055443121039218486 0.0032328755205172132 0.0044368063709620291 0.0022824282149512391 0.0071239960897694762 -0.00079566665783630311 0.0012311316591329408 -0.00037770136565016063 -0.003680397468801343 0.0098322895449508459 0.0055498357719450143 -0.0024674888587057839 0.0064671272737150017 0.0002179930025233538 0.0045486603376617574 0.0011363843429268651 -0.0014068498595769989 0.0044074815666814071 0.0034241215883435657 -0.0021561379327939413 0.00810644391102972 0.0068555526199166718 0.0095790051269744134 0.011005654791901496 0.0027603227712213992 0.0024293504076257442 0.0053560064792552327 -0.0011135471828598584 0.0010825670793080655 0.0027251782944198353 0.007714609493519169 0.0012268006545446972 0.012584639954800053 0.0029954597586447865 0.005090381037709586 -8.6346940099317352e-05 -0.002918709987744109 0.0069098289650470117 0.0036697888563436061 0.0067909836019272073 -0.0039192356655458069 0.0010989245918436527 0.011891827905757268 0.0014145717631398871 0.00066978638568668562 -0.0017557590494889409 0.0066439173723885211 -0.00075145179919511448 -0.0023178522125142965 0.0067887361081583166 0.00010433206429480944 0.0033933008570798903 0.0058288356415671415 -0.0036608736259060807 0.0088535272979394716 0.0066825455492129553 0.010280443515506894 0.0080642807888152614
leaf_weight=2006 1777 1816 1634 3698 30 525 430 1726 461 1041 1157 1188 3512 490 1386 2060 261 242 528 1209 2801 679 162 2570 538 928 20 183 24 651 397 2539 4400 1996 552 293 522 150 878 3174 8686 485 862 277 3377 659 88 580 111 5428 298 4425 275 48 1725 136 102 368 252 49 220 273
leaf_count=2006 1777 1816 1634 3698 30 525 430 1726 461 1041 1157 1188 3512 490 1386 2060 261 242 528 1209 2801 679 162 2570 538 928 20 183 24 651 397 2539 4400 1996 552 293 522 150 878 3174 8686 485 862 277 3377 659 88 580 111 5428 298 4425 275 48 1725 136 102 368 252 49 220 273
internal_value=2.54291e-06 0.00385851 -0.00163933 -0.00232794 0.00667906 0.000192254 0.00230588 0.00180665 0.00550421 -0.00130007 -0.000503902 0.0023034 -0.0032887 0.00903046 0.0049093 -0.00113389 0.000953087 0.0034769 0.00358702 0.00120865 -0.00156548 0.00338752 0.00045097 -0.00294069 0.010282 0.00725313 0.000476185 0.00755292 0.00503388 0.00458303 0.00354683 -0.0017215 0.000730585 0.00212795 0.00617267 5.68067e-05 0.0112679 0 0.00399665 0.000264658 -0.00313871 0.00575921 0.00274769 0.0051097 -0.00414653 4.27344e-05 0.00866467 0.00228513 -0.00203707 -0.00200748 0.00531774 -0.00100635 -0.00380069 0.00830026 -0.000232746 0.00193154 0.00722248 -0.00467463 0.00775382 0.00423235 0.00970121 0.00748666
internal_weight=79358 23700 55658 40452 8412 15206 15288 12926 5613 19547 11434 3772 20905 2799 4632 6892 1841 503 1931 9382 16352 3544 4542 14879 1638 1161 50 1111 2362 1963 1048 4599 6177 3205 1938 3195 1012 1338 2694 4331 12198 915 2588 956 6026 2293 626 1105 2681 9126 826 7226 3652 981 2766 429 399 2374 713 211 268 375
internal_count=79358 23700 55658 40452 8412 15206 15288 12926 5613 19547 11434 3772 20905 2799 4632 6892 1841 503 1931 9382 16352 3544 4542 14879 1638 1161 50 1111 2362 1963 1048 4599 6177 3205 1938 3195 1012 1338 2694 4331 12198 915 2588 956 6026 2293 626 1105 2681 9126 826 7226 3652 981 2766 429 399 2374 713 211 268 375
